0,1,2,3,4,5,6,7,8,9,10,11,12,13,14,15,16,17,18,19,20,21,22,23,24,25,26,27,28,29,30,31,32,33,34,35,36,37,38,39,40,41,42,43,44,45,46,47,48,49,50,51,52,53,54,55,56,57,58,59,60,61,62,63,64,65,66,67,68,69,70,71,72,73,74,75,76,77,78,79,80,81,82,83,84,85,86,87,88,89,90,91,92,93,94,95,96,97,98,99,100,101,102,103,104,105,106,107,108,109,110,111,112,113,114,115,116,117,118,119,120,121,122,123,124,125,126,127,128,129,130,131,132,133,134,135,136,137,138,139,140,141,142,143,144,145,146,147,148,149,150,151,152,153,154,155,156,157,158,159,160,161,162,163,164,165,166,167,168,169,170,171,172,173,174,175,176,177,178,179,180,181,182,183,184,185,186,187,188,189,190,191,192,193,194,195,196,197,198,199,200,201,202,203,204,205,206,207,208,209,210,211,212,213,214,215,216,217,218,219,220,221,222,223,224,225,226,227,228,229,230,231,232,233,234,235,236,237,238,239,240,241,242,243,244,245,246,247,248,249,250,251,252,253,254,255,256,257,258,259,260,261,262,263,264,265,266,267,268,269,270,271,272,273,274,275,276,277,278,279,280,281,282,283,284,285,286,287,288,289,290,291,292,293,294,295,296,297,298,299,300
can,0.11065,0.24669,-0.18658,0.012708,-0.1912,0.12181,0.16393,-0.33029,0.084313,-0.020997,0.15255,0.097954,-0.16992,0.0054158,0.25897,-0.16895,-0.062122,0.21176,0.16084,-0.11794,0.066001,0.056471,0.071429,-0.17448,-0.22712,-0.18137,0.22941,0.0022489,-0.090471,-0.10937,0.022603,-0.029754,-0.081913,0.20394,-0.05883,0.38965,0.0083053,0.4147,0.084542,-0.27487,0.18505,-0.20228,-0.12477,0.057965,-0.098893,0.22262,0.17805,-0.034665,-0.031314,-0.15987,-0.12464,-0.16906,0.049108,-0.33044,0.00835,0.10887,0.14148,0.15831,-0.096215,0.22528,-0.12001,0.018285,0.21598,-0.049153,-0.21384,0.16079,-0.25483,0.20341,0.11601,-0.0030113,-0.3156,0.20171,0.023238,-0.40907,-0.30345,0.40636,0.27004,0.039163,-0.10858,0.050155,0.074451,-0.0020345,-0.20087,-0.41376,-0.15055,0.10753,0.051928,-0.02967,-0.24054,0.078136,-0.012462,0.056985,0.24968,-0.43275,0.181,0.075832,0.12553,-0.012543,0.071581,0.020161,0.22433,-0.042835,0.15356,-0.045929,0.019526,-0.29031,-0.01736,-0.11194,0.075381,0.037163,-0.052185,0.09066,-0.35524,0.12666,-0.013537,0.056748,0.024969,0.15978,0.06091,0.25759,0.085401,-0.025078,-0.13521,0.59584,0.004185,-0.080007,0.074427,0.016724,0.045648,0.27417,-0.26426,0.24649,-0.068903,0.19791,0.09642,-0.086243,0.071497,0.13084,0.06851,0.064502,-0.088842,-0.093422,0.091265,-0.1271,-0.14387,-0.015616,0.067212,-0.15321,0.20156,-0.06085,0.052899,-0.18268,0.13799,-0.14256,0.13308,-0.099,0.044192,0.0080196,0.31332,-0.0045778,-0.028154,0.0065353,-0.33537,-0.20521,0.23822,-0.13861,-0.10279,-0.2428,0.26514,0.26082,-0.14723,-0.3098,-0.26263,0.17739,-0.14622,0.071931,0.062088,-0.008664,-0.014127,-0.31914,-0.076162,-0.047676,0.28151,0.021578,-0.11013,-0.037121,0.19977,-0.057439,0.33638,-0.15844,-0.14586,-0.21924,-0.18021,0.19421,-0.29355,-0.27361,0.041138,0.23472,-0.34556,-0.1953,0.44968,-0.049309,-0.16264,0.0069003,-0.095944,-0.18031,-0.49247,0.14616,0.13988,0.21808,0.096164,0.23812,0.17263,0.2811,0.26554,0.016168,0.00015303,-0.42821,-0.21857,-0.03789,-0.15536,-0.03722,-0.083077,0.0036336,-0.060149,0.01032,-0.097668,-0.15132,0.039746,-0.15866,-0.022003,0.043917,0.090389,0.12373,-0.14639,0.08397,0.017056,-0.11436,-0.058325,0.010183,0.052068,0.17992,0.13454,0.052547,-0.15264,0.49412,0.1057,-0.093464,0.32841,0.10233,0.034091,-0.053778,-0.12315,0.11066,0.27002,-0.081935,-0.0033055,-0.19624,0.038855,-0.18385,-0.13684,-0.081275,-0.022542,-0.064055,-0.3923,-0.26847,-0.21035,0.12206,-0.049324,0.13168,-0.23663,-0.0017769,0.10158,-0.00020394,0.034525,0.041206,0.16784,0.075352,0.25813,-0.14187,0.038739,-0.011329,-0.24511,-0.21127,0.20413,-0.059722,0.070428,0.30894,-0.13573,0.30826,0.053552,-0.0022851,-0.14715,-0.042718,0.20904,-0.10093,-0.092434,0.10166,0.37379,-0.066493
house,0.32953,-0.30029,0.19806,0.077228,-0.016521,-0.20102,0.056197,-0.13291,0.28417,0.016375,-0.076002,-0.062942,0.31484,0.13476,0.37512,-0.56367,0.061644,0.10021,-0.29779,0.34874,-0.49134,0.35316,-0.39848,-0.36342,-0.31332,0.028881,-0.29569,-0.41397,0.073715,0.22716,-0.22705,0.12901,0.051148,-0.11774,0.24817,-0.31027,0.13878,-0.028453,-0.14736,-0.19723,0.12082,-0.086649,-0.20101,-0.041808,0.16635,-0.16051,0.2467,-0.038951,-0.10111,0.098555,0.14621,-0.12495,-0.41722,-0.034779,-0.025466,0.077851,0.030671,0.25398,0.036394,0.087618,-0.15388,0.098384,0.026282,-0.18789,-0.1712,-0.52421,0.095009,-0.30195,0.068864,-0.18455,0.079524,0.073289,0.25214,-0.397,-0.21369,-0.091032,0.11327,0.041763,-0.22474,-0.34014,0.075861,-0.30784,-0.060835,-0.30491,-0.056355,0.023873,-0.12064,-0.29621,-0.29792,0.34743,0.088702,-0.072919,-0.025202,-0.047999,0.17957,0.24043,0.17913,0.18034,0.045082,0.063215,0.19718,-0.25604,0.31682,-0.1389,-0.32424,0.061566,0.17256,-0.0558,-0.027695,-0.11381,0.031491,-0.045074,-0.5383,-0.62436,0.25381,0.039884,0.26141,-0.13991,-0.12102,0.27936,0.16003,-0.049362,0.28921,0.42581,0.2487,0.011661,0.17541,0.14935,0.43594,0.17409,0.1345,-0.0092249,-0.076629,-0.11942,0.025065,0.24513,0.15387,-0.31447,-0.62151,0.0027985,0.089079,0.14521,0.098068,0.29106,0.12243,-0.15455,0.0042562,-0.41913,0.15899,0.17123,0.21778,-0.29769,-0.10299,0.11969,-0.11232,-0.18237,-0.15973,-0.60249,0.34227,-0.30638,-0.24264,0.21757,0.18047,0.19289,0.0016298,0.35013,-0.16402,0.26859,0.13015,0.14832,0.092141,-0.22608,-0.38013,0.21512,-0.19508,0.45204,-0.11377,0.12408,0.31977,0.015499,-0.20403,0.25271,-0.031506,0.091729,0.036873,0.092388,-0.11739,-0.07268,-0.032282,-0.096823,0.43741,-0.0096334,0.092832,0.24338,-0.22863,0.11083,0.10005,0.0094922,-0.29196,-0.32338,0.20828,-0.04632,-0.15796,0.11082,0.25251,-0.3901,-0.58703,-0.074887,0.14932,-0.44957,0.62011,-0.021951,-0.24101,-0.0090271,0.14302,-0.080818,-0.21103,-0.17635,-0.30577,0.0087762,-0.034607,-0.085514,-0.19444,0.093064,-0.10476,0.11163,-0.25716,0.0045569,-0.14876,0.28867,0.20024,0.21161,0.33758,0.21405,0.22379,-0.10174,-0.37497,0.022761,0.023347,0.14929,0.15078,0.14124,0.26941,-0.048528,-0.17897,-0.35764,-0.13078,0.14013,0.30022,-0.26967,0.54349,0.063932,0.32504,-0.19382,-0.12129,-0.29424,0.013266,-0.1186,0.23271,0.35236,-0.034547,0.34304,-0.044682,0.0494,0.07775,0.099111,-0.08147,-0.40575,0.31669,0.11693,0.23969,-0.16253,-0.015712,0.030111,-0.030866,-0.076902,0.41502,0.52225,0.090617,0.26314,0.21864,0.30104,-0.11753,0.031434,0.14404,0.22495,-0.11806,0.30724,0.26883,-0.087313,0.098403,-0.32332,-0.25241,0.24006,-0.35408,0.16587,-0.27045,0.12192,0.020976,-0.063743
television,-0.23266,0.04307,-0.27329,-0.094538,0.17699,0.091205,0.40078,0.030906,-0.25653,0.18945,0.54583,0.30231,0.057087,-0.079146,0.40144,0.05169,0.24756,-0.053136,-0.32685,-0.22154,-0.39475,0.50577,-0.29374,-0.011933,0.16912,-0.0021531,-0.47186,-0.3445,0.047343,0.13799,0.34976,0.18808,0.10395,0.070103,0.1494,0.020474,-0.024751,-0.25754,-0.10227,0.13594,-0.0081058,-0.18816,-0.31953,0.13929,-0.032165,-0.25542,-0.25899,-0.16499,0.2448,0.024368,-0.040176,0.0063199,0.63182,0.31599,-0.31636,-0.084605,0.2488,0.081892,0.2758,-0.12302,-0.033614,0.30566,0.042276,0.0071767,-0.049346,-0.6064,-0.10366,-0.058005,0.13111,-0.030012,0.36868,-0.12848,0.20667,0.068424,0.27428,0.49989,0.5161,-0.12209,-0.028902,0.074977,-0.24027,-0.055012,0.075321,0.14961,-0.34238,-0.29257,0.16584,0.036456,-0.27875,-0.016682,0.19803,-0.3648,0.35939,-0.42025,0.18847,-0.042181,-0.2601,0.29574,0.072557,-0.3082,-0.090323,0.089715,0.45396,-0.14616,-0.14752,0.34731,-0.14366,-0.0030854,-0.24351,0.18783,0.00024968,-0.21279,0.095764,-0.81684,0.26131,-0.18144,0.62496,-0.084139,-0.046947,0.30193,0.29158,0.32659,-0.094114,0.28998,-0.14647,-0.3686,0.11358,-0.11514,0.22116,0.099342,0.15247,0.097248,-0.13653,0.032762,-0.044227,0.41733,-0.33872,-0.12028,-0.027729,0.35408,0.018227,0.13418,0.026665,0.063022,-0.044392,0.15167,0.23598,-0.11515,0.10363,0.27398,0.10724,0.06473,-0.46732,-0.038399,-0.098399,0.27658,0.032034,-0.10392,0.30894,-0.049286,0.63418,0.21611,-0.38124,-0.044349,0.65544,-0.44086,-0.31259,-0.08285,0.17533,0.053557,-0.30273,0.31475,-0.39145,0.049062,0.20918,0.63008,0.11983,-0.079569,0.067976,-0.26276,-0.24429,0.12442,-0.14871,0.028912,0.005235,0.087575,0.38113,-0.023189,0.20415,-0.024786,-0.038904,-0.21372,-0.14496,-0.021924,0.061598,0.14942,-0.31645,-0.02075,-0.12135,-0.051691,0.27673,0.26921,-0.23509,0.23343,0.43524,0.18186,-0.3638,-0.33798,0.3672,0.28899,0.57509,-0.14244,-0.1036,-0.29545,-0.41881,-0.031489,-0.096195,-0.53483,-0.17366,0.010056,-0.0028117,-0.20851,-0.55059,0.10246,-0.6079,0.46546,-0.23619,0.10452,0.092104,0.083491,-0.26657,0.40541,0.048382,-0.092996,-0.32389,-0.069977,0.32991,0.051418,0.2111,0.018739,0.16895,-0.21035,-0.11406,-0.023204,0.24685,0.5024,0.13531,0.062765,0.02607,-0.32195,-0.33054,-0.15322,-0.073969,0.173,-0.097352,0.026878,0.6433,-0.11343,0.40219,0.16604,0.24894,-0.15029,0.20793,-0.32227,-0.26499,0.2895,-0.046064,0.0088958,-0.030573,-0.22105,-0.32519,0.028118,-0.025651,0.28614,-0.18408,-0.22899,-0.06928,0.55791,0.31458,-0.28827,0.2456,0.77325,-0.046801,0.043109,0.33855,0.12222,0.3357,-0.01636,0.21234,0.27034,0.17646,-0.17487,0.27069,-0.20878,-0.084954,-0.30989,0.11263,-0.024699,0.09844,0.028302
road,0.25145,0.039636,0.17772,0.34357,-0.16509,-0.294,-0.12378,-0.42177,-0.22882,-0.14619,0.0088731,0.16167,-0.066559,-0.13836,0.033654,-0.34702,-0.11039,0.063121,-0.047614,0.42614,-0.15357,-0.06833,-0.098806,-0.34553,-0.20374,-0.23787,-0.23757,-0.38191,0.25155,0.22051,-0.24301,0.63095,-0.29273,0.27172,0.049845,-0.39326,-0.063773,-0.32678,0.026754,0.15053,0.22374,-0.020329,0.088025,0.23257,0.35869,0.50258,-0.10601,-0.43929,0.22079,0.039198,0.27406,-0.19587,-0.025261,0.50841,-0.17652,0.12937,0.19071,0.059406,-0.23632,0.59967,0.15964,0.25788,0.25922,0.32571,-0.12366,-0.26337,-0.21564,-0.17834,-0.28724,0.35655,0.2011,0.17082,0.0067345,-0.1598,0.14179,-0.36083,-0.21373,0.11776,-0.12775,0.22184,-0.15205,-0.12242,-0.22305,-0.25489,-0.25983,0.31443,-0.12793,0.027868,0.20785,0.032815,-0.22889,-0.37353,-0.019244,-0.47834,0.22693,0.26346,0.24067,0.031199,0.028128,-0.058798,0.22866,-0.14053,-0.2112,0.015008,-0.29884,0.10524,0.039772,0.30368,-0.12889,0.039171,0.054923,-0.074367,-0.10174,-0.062519,-0.044821,-0.051468,0.49751,0.81452,-0.40763,-0.14342,1.1477,0.1115,0.050364,-0.17974,0.17565,-0.077641,0.40383,0.064692,0.12702,-0.38059,0.092438,0.33116,-0.25694,-0.26834,-0.15049,0.039794,-0.1372,-0.44287,-0.51206,0.38725,0.13317,-0.068008,-0.18369,-0.068942,-0.04011,-0.24332,-0.36766,-0.13731,-0.14723,0.0032401,0.24127,-0.19533,-0.4051,-0.53668,-0.13393,-0.071002,-0.093963,-0.38083,0.19523,-0.22382,0.12042,-0.29876,-0.43286,0.25087,0.4181,-0.30313,-0.14752,0.35215,-0.34906,0.11303,-0.44795,0.10103,-0.21755,0.25384,-0.073202,0.17153,-0.25167,0.28732,0.31057,-0.38617,0.53721,0.11863,0.076019,0.36003,0.017791,-0.057214,-0.20756,-0.12736,0.28519,-0.15317,0.21285,0.055007,-0.24303,0.42329,-0.11522,0.062115,-0.27107,0.12614,-0.22732,-0.15352,-0.22519,0.30416,0.014823,0.10821,-0.22077,-0.17223,0.13229,0.38224,0.14579,0.22744,-0.037529,-0.26598,-0.043056,-0.035152,-0.18844,-0.041259,-0.22386,-0.19634,-0.20331,-0.21389,0.096439,0.23355,-0.34627,0.14778,0.0071401,0.27044,0.13956,0.075528,0.12614,-0.020853,-0.082974,-0.22658,0.28811,-0.044308,0.19854,-0.0026642,-0.083849,-0.065271,-0.073045,-0.18953,-0.16387,0.30006,-0.55747,-0.31497,-0.16969,0.33318,-0.14746,0.22951,-0.1653,0.0041158,0.42741,0.023523,-0.18979,-0.02522,0.050474,0.091018,-0.209,-0.22985,0.27364,0.26423,0.19211,0.27633,-0.29481,-0.39291,-0.32776,-0.013536,-0.21893,0.01693,-0.12947,-0.018984,-0.42454,-0.22807,-0.30191,-0.26905,-0.29239,-0.56311,0.16929,0.45572,-0.069011,0.12756,-0.16304,0.1153,-0.080357,0.060424,-0.14077,0.11236,-0.31221,-0.19729,0.18091,-0.033464,0.102,-0.41281,-0.036972,0.13097,0.023799,-0.030768,-0.17641,0.33668,-0.16076,-0.17954
man,-0.011586,-0.076437,-0.2499,0.028163,-0.35323,0.0015216,-0.020837,-0.076733,0.22877,0.18065,0.38324,0.39388,0.1939,-0.067518,-0.019435,-0.33318,-0.4117,0.092621,-0.0082841,0.1628,-0.10092,-0.18395,-0.24474,-0.20096,0.17002,0.1039,-0.16293,-0.035478,0.061456,-0.052501,0.036431,0.38296,-0.2061,0.0090258,-0.030089,-0.4613,0.1561,-0.074393,0.055539,0.274,0.10643,-0.22214,0.082432,-0.17137,-0.10055,-0.24462,-0.25799,-0.10788,0.058723,0.038408,-0.25064,0.16206,0.090334,-0.097423,-0.12217,-0.085929,0.31295,0.15443,0.38319,0.027565,0.29553,-0.10904,0.17643,0.24874,-0.23022,-0.028496,0.14229,0.042295,0.26943,0.092042,0.024195,0.046506,0.21664,-0.26173,0.16751,0.096188,0.37783,0.054871,-0.20953,0.32722,0.039667,-0.04597,0.16423,0.233,-0.17489,0.17141,0.064267,0.3531,-0.15989,-0.041379,-0.038355,-0.21534,0.1911,-0.1593,0.0033516,0.25881,0.12536,-0.12451,-0.38787,-0.24714,0.091701,-0.0085183,-0.22673,-0.20696,-0.11759,-0.010783,0.038153,0.11652,-0.085587,0.018375,0.31746,-0.030004,-0.23258,0.014983,-0.095409,-0.077533,0.19531,0.018157,-0.26235,-0.16453,0.057742,-0.019879,0.32293,0.42378,0.10936,0.097504,0.064009,0.42667,-0.035665,-0.010773,-0.26843,0.43721,-0.37881,-0.0786,-0.15344,-0.22739,0.0050575,-0.011062,-0.00073137,-0.042164,-0.024155,0.16235,0.30068,-0.12953,-0.26341,0.010234,-0.14002,-0.093652,0.018862,0.098197,0.28767,-0.083041,-0.32041,0.013331,-0.25515,0.26042,-0.30086,-0.19617,-0.27478,-0.26668,-0.12631,0.094942,-0.25638,0.18657,-0.21505,0.022119,0.095023,0.10242,0.39851,0.1371,0.003344,0.088287,-0.38237,-0.019548,-0.09354,-0.064701,0.1236,0.10178,0.32725,-0.25036,0.20104,-0.25627,0.077346,0.15118,-0.24981,0.17627,-0.056551,-0.049694,0.071491,0.31547,0.069018,-0.46402,0.13838,0.15687,-0.004461,-0.037181,-0.34827,-0.029883,-0.17194,-0.10816,0.042917,-0.00046502,0.034992,2.92E-05,-0.2042,-0.27769,-0.27173,0.086789,0.20307,0.035392,0.57261,-0.43675,-0.084851,-0.21241,0.31962,0.0043106,0.05775,-0.20493,-0.2554,0.18598,-0.235,0.025769,-0.26411,0.23684,0.06412,-0.15462,-0.22584,0.2411,0.069288,0.11903,0.31945,0.17558,-0.11544,-0.24393,0.20154,0.26057,-0.21812,0.14878,0.1027,-0.075421,0.24544,0.034394,0.32857,0.50636,0.14161,0.023339,-0.067963,0.082174,-0.17169,-0.17074,-0.24005,-0.078143,-0.33855,-0.13268,-0.058294,0.14581,-0.36785,0.044539,0.19181,0.072019,-0.46513,0.061973,-0.0011415,-0.16149,-0.36268,-0.04432,-0.13558,-0.036366,0.033871,-0.12284,-0.11877,0.084805,0.15273,-0.076092,-0.44596,-0.1195,0.0027857,0.12494,0.0071417,-0.26448,0.40404,-0.083152,0.29999,0.049121,-0.0094729,0.23589,0.16711,0.04451,-0.25253,-0.26354,-0.21692,-0.45808,0.12982,-0.04898,0.018055,-0.095581,-0.43803,0.15718,0.21977,0.12105
cup,-0.26777,-0.22605,-0.30312,0.32918,0.41342,0.43318,0.003167,-0.24332,-0.049244,0.14961,0.31125,-0.4181,0.381,-0.41471,0.09121,-0.41179,-0.70733,0.0065664,0.33361,-0.009885,-0.047703,0.01297,0.069261,0.38685,-0.31801,-0.17455,-0.23601,-0.12789,0.031581,0.35373,-0.10243,-0.037232,0.094184,-0.011304,-0.079576,-0.049631,0.117,-0.075893,0.22194,-0.22059,0.15683,0.10893,-0.045022,0.35684,0.1012,0.42466,-0.30424,0.68564,-0.54571,0.73821,-0.62507,-0.094496,-0.42815,0.14969,0.17069,0.08627,0.39081,0.033557,0.021607,0.31242,0.063346,-0.23721,0.19627,-0.38787,0.61994,0.22315,-0.26599,0.33015,-0.24268,0.058928,0.1876,0.17799,0.6684,0.08369,0.28393,0.2689,0.43742,0.12175,-0.27377,0.29696,-0.0036557,0.56516,0.048917,0.043713,-0.058137,-0.019934,-0.0042255,-0.055719,0.13196,-0.44265,-0.24557,-0.371,0.55387,0.21383,-0.11787,-0.23165,-0.023626,-0.24952,-0.23584,-0.17396,-0.12795,-0.054896,-0.051959,-0.2654,0.62451,-0.022092,0.20131,0.30391,0.05663,-0.13056,-0.1771,-0.42224,-0.25094,0.032309,0.49507,-0.41439,0.477,0.52447,-0.44468,0.31899,0.50681,0.015656,0.14026,-0.13976,0.53154,0.23615,0.043477,-0.012801,0.15906,0.48322,0.31009,0.13789,-0.4264,0.090315,-0.31085,-0.39601,0.24925,-0.37883,0.12281,0.80499,-0.10155,0.10368,0.34427,0.34601,-0.19516,0.27243,0.38547,0.39734,0.035235,-0.46306,-0.069269,0.14973,-0.19574,-0.047106,-0.10935,0.10672,0.25827,0.49847,0.39403,0.061014,-0.076835,-0.06406,-0.095304,0.071847,0.72558,-0.096726,-0.99395,0.56666,0.52875,-0.2504,-0.24834,-0.082962,-0.28342,0.095407,-0.030427,0.43951,0.085779,0.11757,-0.50748,0.034311,-0.57256,-0.17717,-0.39443,-0.024504,0.18677,0.43458,0.082648,0.11099,0.10564,-0.42135,-0.15644,0.43975,-0.23635,0.88974,-0.44564,0.32483,0.025535,0.093386,0.13489,-0.38723,-0.47955,0.051283,0.34616,-0.53578,0.29128,0.077813,-0.22866,0.099548,0.50576,0.026792,1.0652,-0.030918,-0.43641,0.26211,0.1314,0.38638,-0.2905,0.055842,0.20971,-0.087039,0.010223,-0.1664,-0.43044,0.022245,-0.082746,-0.28301,-0.34263,-0.84686,-0.4113,-0.042238,-0.28727,0.14531,0.40209,0.014654,-0.3658,0.13338,-0.10651,-0.31477,0.19051,-0.037176,-0.27591,0.21762,0.55738,-0.18317,0.17008,0.3881,-0.32672,0.21539,-0.30457,0.19273,0.46918,0.009964,-0.03219,0.18242,0.88762,0.18792,-0.26693,-0.63157,0.27828,-0.058488,-0.00037125,0.54335,0.25765,-0.2229,-0.2533,-0.2514,0.33451,0.018588,0.13917,-0.053997,-0.26482,-0.090033,0.21398,0.11631,-0.4603,-0.47011,0.27235,0.21438,0.0027968,0.15791,-0.1597,-0.23226,0.040907,-0.087712,-0.14095,-0.23695,0.082808,0.27047,0.16591,-0.21378,0.30084,-0.51675,0.31153,-0.019387,-0.078203,0.0398,-0.41385,-0.084321,0.10569,-0.1155
sea,-0.40774,0.21941,-0.42868,0.14464,-0.16548,0.50729,-0.26037,0.21263,-0.14619,0.1148,0.049241,-0.048137,0.055423,-0.13784,0.23201,0.053613,-0.13356,-0.44551,0.301,0.19691,-0.064529,-0.41713,-0.27393,-0.072347,-0.43002,-0.25139,0.13339,0.13848,-0.19807,-0.087067,0.23162,0.28784,-0.24025,0.25333,0.19827,-0.032995,0.16852,-0.35348,0.12667,-0.36981,-0.059322,0.050817,-0.10823,-0.35912,0.23323,-0.23021,0.16469,-0.010597,0.16544,-0.057868,0.067094,-0.10721,-0.13954,-0.6478,-0.054755,0.46621,-0.20603,0.12227,-0.066649,0.48723,-0.55078,-0.04754,0.32885,-0.14332,-0.37773,-0.34027,-0.38663,0.22698,-0.11413,0.052701,0.047009,-0.077304,0.020789,-0.059708,0.030885,0.13,0.39562,0.44621,-0.28952,-0.28548,-0.28759,0.047982,-0.1426,-0.36355,-0.31219,0.09329,0.074162,0.61636,-0.17595,0.095938,-0.17009,-0.14328,0.2097,-0.030222,0.49979,0.36468,0.3397,0.043412,0.3178,-0.16675,-0.1692,0.3387,-0.46585,0.3257,0.20359,0.055083,0.17716,0.44919,-0.40308,-0.063132,0.15318,-0.1941,-0.10125,-0.25935,-0.11008,-0.36529,0.21225,0.051648,0.062407,-0.15913,0.30689,0.097887,-0.082371,0.089104,0.3087,0.30454,0.077895,0.10229,0.13175,-0.083411,0.059214,-0.18427,0.44392,0.11681,0.46395,-0.066554,0.11444,-0.19621,0.11108,0.47469,0.014472,0.44619,0.13969,-0.054892,-0.2216,0.52571,-0.29253,0.10747,0.43777,0.099188,0.24027,-0.80406,-0.60139,-0.36656,-0.03878,-0.32156,-0.26121,0.0095571,0.25127,-0.16313,-0.17886,0.0008593,0.059224,0.050002,-0.19853,-0.1385,-0.2235,-0.090886,0.073002,0.53773,-0.33748,0.04659,0.12234,-0.072985,-0.014807,0.42592,0.34086,0.044399,0.060443,0.089791,-0.074807,-0.24607,0.12659,-0.2795,0.068382,0.71537,0.05486,0.052363,0.23748,-0.025339,-0.0014087,-0.17622,0.17677,0.67006,0.0097428,0.087749,-0.43945,-0.21358,-0.1361,-0.14574,-0.052218,0.040753,-0.049313,0.32955,-0.10757,-0.13432,-0.051445,-0.4433,0.40181,0.094786,-0.014005,-0.2501,-0.1242,0.053333,-0.017308,0.17949,-0.38735,-0.44249,-0.11409,-0.10241,0.080616,-0.17549,-0.51061,0.060108,0.070028,-0.12373,-0.30341,-0.36697,0.26149,-0.15092,0.0033967,-0.022591,-0.39061,-0.30916,0.064951,-0.4636,-0.48954,0.32425,-0.079206,-0.15235,-0.36453,-0.091889,0.18334,-0.24021,-0.35733,-0.10175,-0.14207,-0.26374,-0.43088,0.06068,0.31641,-0.42487,0.018991,0.26515,-0.21427,0.38988,0.019444,-0.50166,0.24924,-0.016534,0.13757,0.49058,-0.55408,-0.85563,-0.06086,0.079906,-0.065629,-0.35617,-0.51513,-0.069262,0.30799,-0.24902,-0.17275,-0.15885,0.17683,-0.11757,0.28564,0.078762,0.1617,0.17131,0.16156,-0.018409,-0.0061687,-0.077966,0.12506,-0.0071556,0.017863,-0.10424,-0.16496,0.082556,-0.2726,-0.29846,0.12588,0.3847,0.0078718,-0.28188,-0.24988,0.18951,0.15099,0.27527
bridge,-0.25984,0.078845,0.26926,0.52869,-0.2858,-0.30392,-0.45148,-0.29617,-0.20405,-0.00043342,0.44106,0.052122,-0.38661,-0.22431,0.18755,-0.32464,-0.20556,-0.29534,0.48035,0.4346,-0.20845,-0.15752,0.20345,-0.44292,-0.098037,-0.006832,-0.26413,0.16514,0.19156,0.10437,-0.35222,0.30636,-0.099583,-0.067115,0.40217,-0.07139,0.35832,-0.49871,0.2929,0.41793,0.12462,-0.21846,-0.17694,-0.23051,0.26487,0.34868,-0.076615,-0.088227,0.40256,0.18924,0.14036,-0.2117,-0.29196,0.54869,-0.26329,0.21705,0.16141,0.16987,-0.044138,0.28814,0.52932,0.0066161,-0.029864,0.17621,-0.13074,-0.12908,-0.047735,-0.17493,0.1156,0.10874,0.082674,-0.047553,0.33508,-0.38515,0.14109,-0.14171,0.024046,0.04336,-0.50958,0.28487,0.38458,0.046065,-0.48375,-0.22475,-0.40655,0.20159,-0.10155,0.090499,-0.1783,-0.042391,-0.0046391,-0.17035,0.56286,0.020924,0.028249,0.66113,0.05877,0.29067,0.098948,-0.26164,-0.23943,-0.12858,-0.1038,-0.3288,-0.24953,-0.27653,-0.20212,-0.28607,-0.19715,0.24418,0.024791,-0.12884,0.18173,-0.23764,0.42823,-0.20965,0.18109,0.49577,-0.21707,-8.73E-05,0.81602,-0.19659,0.01417,0.35506,-0.041787,0.09551,-0.042717,0.072467,-0.019834,-0.044793,0.14903,-0.021352,-0.16746,0.32617,-0.42628,0.088574,0.11108,-0.042129,-0.42244,0.48026,0.10377,0.061108,0.06464,-0.18994,-0.26494,-0.15358,-0.14059,-0.13864,-0.42831,0.14006,-0.2216,-0.066731,-0.11774,-0.15686,0.046122,-0.3162,-0.041997,-0.16023,-0.025027,-0.14533,-0.05851,-0.36754,-0.19889,0.035491,0.15845,0.3852,0.023832,0.041657,-0.085035,-0.10558,-0.48281,-0.022737,-0.52315,-0.14607,-0.16411,-0.12012,0.35947,0.23869,0.55456,-0.38273,0.2266,0.040633,-0.026432,-0.087507,0.52391,0.40594,-0.42871,-0.50541,-0.12395,0.076059,-0.23173,-0.13032,0.49994,0.41578,-0.20525,-0.0080978,-0.052051,0.27598,-0.26367,-0.13807,0.24093,0.30556,-0.28719,0.27045,-0.26441,-0.52775,-0.19979,0.18333,0.24791,0.17286,0.15872,-0.24052,0.26174,-0.054102,-0.34324,0.11462,-0.10645,-0.27437,0.098263,-0.27546,0.17467,0.021874,-0.42494,0.22024,0.30155,-0.085634,0.41901,-0.54067,0.095429,-0.30601,0.16313,-0.12492,0.16912,0.15893,-0.049663,0.041068,-0.26173,0.21502,-0.11481,-0.38625,0.25775,-0.16428,-0.13608,-0.27643,0.07086,0.087094,0.078676,0.07326,-0.013996,-0.1407,0.23131,-0.12077,0.17183,0.10381,0.44468,0.23458,0.014795,0.12597,0.15492,-0.12469,0.12626,0.14214,-0.44507,0.040231,0.046151,0.12601,-0.30944,0.2713,0.019214,0.17857,-0.22442,0.17912,0.14688,-0.27873,0.29237,-0.19822,0.54951,0.63479,0.071663,0.4607,0.10827,0.48257,0.075246,0.19316,-0.045895,0.21163,-0.0033132,-0.076908,0.18308,0.11071,0.32834,-0.054256,0.075471,0.18252,-0.27559,0.029396,0.065485,0.30863,-0.18673,0.1062
mountain,-0.062133,-0.10762,0.22221,-0.10405,-0.22868,-0.036896,0.050422,0.0009461,0.28173,0.11939,-0.21377,0.029275,0.59422,-0.43041,0.24343,-0.027008,-0.034761,-0.11333,-0.08952,0.36922,-0.26878,0.29486,-0.40603,0.2552,-0.2105,-0.2887,-0.082682,-0.17236,-0.38165,-0.55044,0.090079,0.29236,-0.093816,0.17688,-0.017073,-0.1722,-0.17661,-0.0879,0.31805,-0.034961,0.26637,0.10585,0.011308,0.26074,0.2539,0.095143,-0.20868,0.066861,0.44014,0.4117,-0.077045,-0.030186,0.26181,-0.061068,-0.40848,0.2811,-0.02652,0.073594,0.14594,0.53621,0.20327,0.082032,0.20975,0.22738,0.39308,-0.14177,0.059687,0.37124,-0.28595,0.29623,0.055531,0.017164,0.11232,-0.37929,0.015455,-0.28501,0.36023,-0.039075,-0.37924,0.33937,-0.25857,0.14642,-0.24439,-0.16033,-0.2454,0.32149,-0.16743,0.31225,0.1027,0.29113,-0.30414,-0.057327,0.38198,-0.37169,0.15087,0.18842,-0.10013,0.46937,-0.16105,0.0032254,0.15385,0.10051,0.12821,0.17594,-0.061759,-0.24409,-0.1858,0.42087,0.28655,0.011612,0.095443,-0.30343,0.24287,0.096036,-0.003176,-0.18165,0.66283,0.31991,-0.10054,-0.12029,0.37961,0.084727,-0.22073,0.051323,0.2574,0.25453,0.32042,0.25486,0.0088562,-0.18156,-0.22235,0.50738,0.24092,-0.048915,0.30141,-0.30742,0.067141,0.011182,-0.64416,0.22092,0.35596,0.57609,0.41008,0.27937,0.30881,0.43195,-0.33425,-0.12863,-0.026148,0.15847,0.61781,-0.3253,-0.045516,-0.333,-0.40514,0.12211,0.092778,-0.21999,0.28896,-0.26663,-0.13124,0.26443,0.078049,-0.18673,0.052593,-0.11982,-0.28766,0.21359,-0.22696,0.070849,-0.33175,-0.12926,-0.39181,-0.08488,-0.2413,0.49062,0.14228,-0.31938,0.29465,-0.51414,0.042787,-0.31263,0.29221,-0.26508,0.13607,0.066727,0.24092,0.00034535,0.2596,-0.079651,-0.10616,-0.2925,0.18482,0.14135,-0.057274,0.17023,0.15362,-0.25146,-0.4308,-0.48091,-0.14512,0.086767,-0.070656,0.059348,-0.25584,-0.28352,0.091314,-0.16675,0.59024,-0.045959,-0.058407,0.18777,0.23289,0.051502,-0.0017696,-0.33306,-0.027817,-0.44001,-0.12067,0.32524,-0.08306,-0.017086,-0.42018,0.25832,0.16625,-0.23651,0.094183,0.50362,0.24058,-0.086751,-0.21221,0.20465,-0.66051,-0.041872,-0.0085974,0.0455,-0.22696,0.027696,0.57581,-0.15408,-0.135,0.04592,-0.31891,0.066114,-0.11685,-0.25168,0.0076773,-0.17049,-0.2526,-0.018375,0.39133,0.10898,0.27975,0.25833,0.28236,0.41527,0.16675,-0.16802,0.58831,0.011658,-0.31237,0.18965,-0.3321,-0.25423,-0.36146,0.1517,0.12731,0.060161,-0.030158,0.054744,-0.11971,0.06081,-0.20464,0.20916,0.030095,-0.4563,0.12441,0.068804,-0.2965,0.21667,0.044412,-0.014153,-0.072468,-0.085253,0.15421,-0.16342,-0.41911,-0.33935,-0.21808,-0.16585,0.052521,-0.31794,0.28432,0.17304,0.02939,0.041975,0.019906,0.30323,-0.12387,-0.24613
woman,0.25962,0.17535,-0.12542,-0.080696,-0.061302,0.056261,0.056393,0.21442,0.1067,0.20445,0.3325,0.31818,-0.091795,-0.11481,-0.28517,-0.45079,-0.20803,-0.31026,0.023568,0.43804,-0.047881,0.27973,-0.33378,-0.46766,0.025009,0.04989,-0.01777,0.042161,0.16982,0.012799,0.11187,0.21968,-0.18354,-0.050675,-0.061415,-0.67166,0.09404,-0.20282,0.16199,-0.052993,0.11621,-0.13011,-0.10406,-0.21085,0.067636,-0.083764,0.040483,-0.27397,0.16717,0.12192,-0.0046448,0.10215,0.36938,0.069962,-0.2525,-0.2452,0.21282,0.0033357,0.6484,0.15819,0.13321,0.011933,-0.054102,-0.30005,-0.021245,0.017863,-0.076754,0.056355,0.37301,0.11733,-0.14157,0.021675,0.10314,0.03667,0.20788,-0.12538,0.43421,0.11968,-0.24385,0.32838,-0.013515,-0.021177,0.24981,0.31188,-0.20139,0.28868,-0.018472,0.055953,-0.19515,0.0093835,0.069022,-0.23334,0.13596,-0.29036,0.079986,0.017105,0.3807,0.31422,-0.48746,-0.077357,0.11231,0.15033,-0.13227,-0.24743,0.059384,-0.10541,0.11822,0.10514,0.12548,0.16175,0.39414,-0.22477,-0.43768,-0.0086204,-0.13918,-0.213,0.047848,0.19935,-0.20841,-0.25036,-0.1433,0.051901,0.1154,0.50245,0.28321,0.057382,-0.052554,0.19968,0.13113,0.14606,-0.19485,0.032349,-0.33143,0.026866,0.057879,-0.35514,-0.19389,0.1023,-0.17372,0.18058,-0.1636,0.35451,0.36096,0.022705,-0.4798,0.067197,-0.16769,-0.10442,0.08473,0.13772,0.13284,0.15174,-0.21555,0.15724,-0.38082,0.21593,-0.11296,-0.15456,0.038018,-0.09065,-0.10746,0.32096,-0.22628,-0.31108,0.035677,0.00083215,0.088619,0.023267,0.37838,0.10354,0.15739,-0.0595,-0.54967,-0.060083,-0.3238,-0.13606,0.11623,0.054818,0.018693,-0.23825,0.12358,0.0057538,-0.04546,0.28886,-0.091884,0.07852,-0.011367,-0.20092,0.14347,0.24158,-0.043477,-0.11741,0.19451,0.40802,-0.54687,-0.17009,-0.30986,-0.2885,0.033422,0.094523,0.24034,0.096408,0.025515,-0.049875,0.0057245,-0.31918,-0.23676,0.012952,0.26529,0.01597,0.68942,-0.18329,-0.27383,-0.33794,0.26392,-0.15779,-0.070891,-0.20962,-0.30403,0.094875,-0.23696,-0.29362,-0.15312,0.31134,-0.36454,0.085803,-0.04881,0.274,0.46243,-0.26649,0.23909,0.15993,-0.11327,-0.22414,-0.072183,0.29242,-0.4692,0.24633,-0.09425,0.041831,-0.085007,0.17391,0.34837,0.26812,-0.13399,0.12808,-0.14542,0.12902,-0.3054,-0.15306,0.012572,-0.38781,-0.0070933,0.047757,-0.17272,0.097241,-0.0705,-0.064303,-0.045376,0.070078,-0.39978,0.037694,0.12773,-0.21385,-0.20927,0.0052263,-0.19083,0.087101,0.19345,-0.16149,-0.0091747,-0.10461,-0.11505,0.017645,-0.41843,0.098135,0.25042,-0.033065,-0.17128,0.0014175,0.16169,-0.092272,0.20086,0.37469,0.12484,-0.084954,-0.0027507,0.066208,-0.034869,-0.1845,0.038653,-0.27072,-0.075877,-0.19495,-0.23489,0.11364,-0.30003,0.15166,0.17144,0.22693
castle,-0.17623,-0.039738,-0.083924,-0.026117,-0.3067,-0.044535,-0.38149,0.24611,0.032901,0.1793,0.10422,-0.2455,-0.15437,-0.29553,0.10317,-0.3841,0.059105,0.33376,-0.38391,0.35765,-0.42731,0.15381,-0.52753,-0.25912,-0.36877,0.46042,-0.22427,0.027633,0.049346,0.15382,-0.036896,0.087653,-0.17651,0.10517,0.0038302,0.17639,0.038053,-0.040408,0.035144,0.12594,0.39545,0.20459,0.38016,-0.070072,0.52595,-0.47532,-0.32334,0.13938,0.12893,0.36564,0.27251,-0.31095,-0.20281,0.0036803,-0.0046236,0.37592,0.32888,0.27064,-0.28658,0.68243,0.17002,-0.34215,0.48372,0.12044,0.13272,-0.4704,-0.18644,0.21885,0.20112,0.10568,0.17014,0.27812,-0.1403,0.1389,-0.25873,-0.018808,0.51957,0.12454,-0.13442,-0.063338,-0.069579,-0.029044,-0.1986,-0.21126,0.074462,0.17759,-0.093405,-0.1342,-0.16509,0.07913,-0.27775,-0.023051,-0.03041,0.15835,0.37723,0.41455,0.4474,0.61235,-0.12219,-0.25762,0.069391,0.38921,0.13281,-0.049306,-0.15384,-0.3518,-0.60194,-0.1815,0.20435,-0.44151,-0.089063,-0.062169,-0.22777,0.14459,-0.12392,0.057318,0.39815,-0.063658,-0.28647,0.26945,0.47385,-0.005513,0.37014,0.33628,-0.055926,-0.031639,0.30077,-0.2004,0.2079,0.48551,-0.33784,0.17546,-0.075828,0.17691,0.18377,-0.11804,0.46321,-0.20173,-0.57364,0.50946,0.3116,0.23053,-0.19111,0.22945,0.10442,0.11661,0.41702,-0.31832,0.080959,0.16705,0.46007,-0.30859,0.27106,0.18332,-0.50643,0.014537,0.18758,-0.075087,0.29285,-0.40988,-0.56022,0.11273,-0.14187,-0.4604,0.15141,-0.021665,-0.3369,0.25326,0.019943,0.10249,-0.38852,-0.27975,-0.29904,-0.0052711,-0.027549,0.22071,0.028254,-0.0052645,-0.27128,0.26459,0.14519,-0.091932,0.44243,-0.017669,0.0023963,0.30515,-0.30003,-0.27612,0.17023,0.18092,0.24542,-0.60193,0.24278,0.29118,0.46487,0.038154,-0.14359,0.37083,0.05809,-0.12045,0.34122,-0.21751,-0.061187,0.25154,0.026711,-0.35059,-0.25802,-0.021532,0.13977,-0.36134,0.18354,0.12952,-0.40046,-0.055478,0.31083,0.47027,-0.20894,-0.44868,0.23519,-0.38149,0.2356,0.054723,-0.57941,-0.21628,-0.10654,0.2104,0.22358,0.036015,-0.29024,-0.29848,0.53919,-0.048778,-0.25655,0.36681,-0.1329,-0.28784,0.13478,0.36484,-0.1241,0.39672,-0.0051234,0.082598,-0.11278,-0.31971,-0.1291,-0.28605,-0.30347,0.35985,-0.010021,0.35307,0.39385,-0.1169,0.14299,-0.23081,0.23439,0.20122,-0.1429,0.080269,0.10704,-0.10663,-0.30906,0.029902,-0.4274,-0.10815,0.087486,0.2494,0.12476,-0.39631,0.25234,0.11445,-0.20875,0.39126,0.28702,0.1702,0.05735,-0.24901,0.43495,0.6566,0.13711,0.52711,0.063666,0.24276,0.024841,0.1965,-0.010951,0.54558,0.23156,-0.11286,0.26721,-0.10041,0.55672,-0.65441,-0.4551,-0.24579,-0.14587,0.23512,-0.23984,0.20262,-0.27758,0.091714
forest,-0.059188,-0.091372,0.1337,0.40956,-0.067517,-0.14281,0.23208,-0.37556,0.32506,0.37062,0.0076498,0.16051,0.25931,0.14116,0.09697,0.038898,-0.20705,0.15844,-0.06465,0.462,-0.33841,0.19802,-0.68781,-0.011154,-0.10316,0.14437,0.16849,-0.3744,0.33765,-0.49309,-0.23279,0.4392,-0.21415,0.32693,0.12773,-0.06899,-0.039165,0.11445,-0.062431,-0.15127,-0.027894,0.062203,-0.29867,0.15408,0.22037,-0.0021234,-0.21229,-0.50025,0.2581,0.41776,0.070269,0.027665,0.13473,0.098787,-0.029935,0.5018,-0.64679,0.28825,0.38552,0.52574,-0.25117,-0.36685,0.33541,-0.064689,-0.16893,0.064097,-0.3189,0.17059,-0.026358,0.13673,-0.19663,0.025093,0.23366,-0.20661,-0.30224,-0.42987,0.72926,-0.052319,-0.072579,0.076322,-0.37064,0.14936,-0.11403,-0.13817,-0.13358,-0.26841,-0.035839,0.19289,0.16029,0.17891,0.041621,-0.11192,-0.097257,-0.14473,0.042882,0.68081,0.27269,-0.13568,-0.15354,-0.36485,0.21281,0.030743,0.043091,-0.069222,-0.28358,-0.076101,-0.0020323,0.15279,0.019124,-0.29294,-0.23261,0.0041201,-0.12068,-0.15084,0.26384,-0.42762,0.39664,0.42562,-0.036157,-0.27485,0.41358,0.14131,-0.2104,0.20781,-0.092691,-0.18787,0.0065885,-0.13645,0.12066,-0.072469,-0.67896,0.14073,0.094023,-0.32818,-0.03003,0.19583,0.40853,-0.034263,-0.47781,-0.33736,0.47828,0.30235,-0.046457,0.42112,0.26245,0.40072,0.16996,0.090913,0.35722,-0.55585,0.45468,0.084756,-0.018427,-0.087188,-0.26752,0.13813,-0.024839,-0.33361,0.18553,0.33174,0.45913,0.070865,-0.39307,-0.18896,0.080045,-0.60121,-0.050477,0.26848,0.27445,0.17641,-0.41424,-0.36264,-0.48234,-0.09041,-0.10373,0.52021,-0.064975,0.23807,-0.24912,-0.64025,-0.077122,0.34868,0.04381,-0.25363,-0.11415,-0.11628,-0.17505,0.47378,0.031457,-0.15308,0.25384,-0.073403,0.34844,0.17893,0.061248,0.11471,0.050218,-0.32694,-0.38768,-0.52422,-0.20331,0.039989,-0.081409,0.37722,-0.093542,-0.52216,0.021952,0.26493,0.099072,-0.097691,0.28628,0.15424,0.29808,0.13308,-0.16649,-0.061096,-0.21418,-0.56851,-0.13206,-0.36095,0.23427,0.14184,-0.095491,0.35078,-0.27739,-0.046467,0.015588,-0.17492,0.28817,-0.33392,-0.12524,-0.043114,-0.52563,0.107,0.28702,-0.40006,-0.21125,0.14524,0.0029875,0.28575,-0.2362,-0.13821,-0.097069,-0.37332,0.50432,-0.064047,0.094397,-0.096778,-0.070287,0.035355,0.081935,-0.1586,0.43501,-0.081195,0.35817,0.041615,-0.13259,-0.22516,0.03894,-0.13797,0.37346,0.077903,-0.38646,0.34602,0.011077,-0.12491,0.13034,-0.16711,0.006407,-0.0088998,0.024858,0.14584,0.018857,-0.2759,-0.1878,-0.33818,-0.03139,-0.19218,-0.3314,0.35669,0.19117,0.032624,-0.46854,0.1111,0.0043653,-0.11775,-0.28365,-0.054861,-0.33876,-0.19012,0.13098,0.034243,0.17736,0.087889,0.0030492,-0.044008,-0.094964,0.72349,-0.08787,0.22273
table,0.020394,0.13215,-0.078397,0.28236,0.28683,0.23156,0.18697,-0.39256,0.11061,-0.25506,0.40792,-0.35002,0.14718,-0.053012,0.61501,-0.21695,-0.20886,0.12443,-0.06785,0.16949,0.033201,0.2337,-0.17609,0.29944,-0.037837,-0.24745,-0.1585,0.044454,0.026011,0.064174,0.22063,-0.010475,0.39666,0.12837,-0.30076,-0.24616,0.085216,0.40288,0.16166,0.086806,0.40728,0.027326,0.28994,-0.24283,-0.001078,-0.47772,0.11581,-0.26815,-0.33145,0.12125,0.091837,-0.24309,-0.30668,-0.057006,0.10416,0.28147,-0.55084,0.3758,-0.28852,0.11409,-0.092546,-0.34688,0.62719,-0.21125,0.055291,-0.069903,0.04128,0.063316,0.061046,0.1452,-0.11249,0.15399,0.21857,-0.31225,-0.13313,0.31517,-0.071465,0.12618,-0.27824,0.23014,0.59884,0.12216,-0.45686,-0.12472,-0.0050893,-0.055342,0.34837,-0.18692,0.096242,0.025424,0.035957,0.17267,0.54662,0.11533,-0.27784,-0.12057,-0.33726,-0.066659,-0.065354,0.10322,-0.038965,-0.54707,0.13938,0.059963,0.12872,0.034098,-0.21545,0.042633,0.40532,0.063197,0.00015434,-0.15531,-0.028339,-0.031383,0.010712,-0.21725,-0.13667,0.12126,0.27559,-0.090004,0.17377,0.086636,-0.078568,0.37321,0.38363,-0.096339,0.35313,0.074082,-0.33645,-0.067682,0.29777,0.42879,-0.19249,0.12834,0.066273,0.059744,0.060453,0.19817,-0.013441,0.34138,0.38827,0.083505,0.3115,0.13314,0.2259,0.38859,-0.13103,0.023088,-0.012484,0.126,0.51895,-0.047526,-0.10575,-0.43054,0.27967,0.11503,0.14626,-0.27787,0.019154,0.16051,-0.00020539,0.53342,-0.61594,0.093197,0.19755,-0.25034,-0.22305,-0.32422,0.25052,0.15305,-0.17878,-0.33624,-0.1192,-0.20537,0.0028495,0.63682,-0.024501,0.35654,0.068964,-0.14833,-0.186,-0.14451,0.29587,-0.018268,-0.15421,0.24596,0.22573,0.11143,-0.11508,0.055656,0.25181,-0.23112,0.12138,0.14509,-0.30815,-0.057882,0.033022,-0.22813,-0.32248,-0.020336,0.37698,-0.13795,0.1432,-0.27847,-0.0079339,-0.16961,-0.17645,-0.25067,0.26042,-0.07821,0.45881,-0.057253,0.12337,0.22707,0.37435,0.015062,-0.0092168,-0.35188,-0.22259,-0.042997,-0.16398,0.07426,-0.15737,0.032764,-0.056614,0.49731,-0.17409,-0.20633,-0.031264,-0.40244,0.2344,-0.053282,-0.049632,-0.091885,-0.18163,-0.11638,-0.32946,-0.052647,0.45163,0.14024,-0.27947,-0.065353,0.39868,-0.096438,0.0086381,0.16905,0.11423,-0.098129,-0.23873,0.14446,0.05325,-0.12596,0.073819,-0.097361,-0.60143,0.048374,0.18493,0.022409,-0.32042,-0.055457,-0.5026,-0.16093,0.071496,-0.10276,-0.24187,0.24513,-0.048892,0.38196,0.05945,0.25649,-0.2215,0.24226,-0.040187,0.060787,0.0051926,-0.19847,0.40866,0.3304,-0.3666,-0.017111,0.10293,0.44394,0.39746,-0.19127,-0.049504,-0.036565,0.20526,-0.067336,-0.15944,-0.15481,0.10278,-0.096254,-0.33273,0.082083,-0.014521,0.016051,-0.19741,-0.2552,0.035973,0.1419
girl,0.29907,-0.034596,0.0594,0.0094821,-0.17067,0.21553,-0.066338,0.16149,0.2888,0.033345,0.28106,0.26716,-0.030474,0.032652,-0.025791,-0.026667,-0.45369,-0.27721,-0.073038,0.22336,-0.16092,0.12249,-0.19697,-0.34358,-0.080914,0.16656,-0.18075,0.16643,-0.026016,0.093223,0.081994,0.54625,-0.11384,-0.12252,-0.063426,-0.2324,0.070925,0.016684,0.13817,-0.080096,0.14178,-0.17241,-0.041406,0.011952,0.11995,0.025528,0.10632,0.098051,0.11146,0.027316,0.04642,-0.083551,0.33714,0.14922,0.0082864,0.070292,0.15338,-0.26517,0.57293,0.17657,0.042808,0.14673,-0.20519,-0.21379,-0.36404,-0.13922,0.05643,0.23447,0.17578,-0.076684,-0.1124,0.10793,0.084128,-0.065885,0.096708,0.14519,0.20866,-0.026837,-0.22884,0.1768,-0.33077,-0.018804,0.10633,0.49008,-0.16769,0.10757,-0.078997,0.058528,0.16618,0.29405,0.077301,-0.27823,-0.061107,-0.18573,0.21623,0.19499,0.23789,0.27378,-0.24076,-0.12806,0.079349,0.46327,-0.34909,-0.24971,0.042087,-0.20746,-0.24827,0.069864,0.1632,-0.015654,0.28738,-0.52303,-0.30229,-0.024144,-0.092345,-0.27547,0.15446,0.074311,-0.26603,-0.11587,0.042937,0.0034783,0.039381,0.75564,0.49588,-0.036169,-0.11495,0.14795,-0.024738,0.38699,-0.19618,-0.10763,-0.51524,0.15552,-0.08775,-0.088527,-0.13795,0.17247,-0.045683,0.090856,0.13851,0.45402,0.15072,-0.083142,-0.15594,0.25733,-0.21818,-0.13899,-0.018663,0.12727,0.10881,0.05071,-0.18766,-0.24446,-0.16753,0.40713,-0.24941,-0.27408,0.024826,-0.0071668,0.34106,0.11949,-0.1394,-0.24541,0.13097,-0.0059637,0.16567,-0.095847,0.2979,0.17409,0.17024,-0.14981,-0.45668,-0.28824,0.012741,0.16737,0.087203,-0.017073,0.23514,-0.13948,0.34357,-0.17992,-0.0037528,0.22087,-0.18493,-0.0021329,-0.016227,-0.19115,0.23994,0.30504,-0.16226,-0.25959,0.16251,0.49137,-0.53193,-0.24509,-0.36008,0.0018952,-0.12502,-0.22481,-0.11056,0.18895,0.17781,0.088584,-0.036978,-0.17509,-0.21613,-0.12554,0.13687,-0.010207,0.83356,-0.067389,-0.13982,-0.31167,0.41732,-0.35558,0.024479,-0.17309,-0.35928,-0.098198,-0.038791,-0.067502,0.040347,0.02324,-0.26143,-0.070483,-0.15852,-0.088463,0.25534,0.25585,0.33102,0.15704,0.0098868,-0.47278,-0.11983,0.26821,-0.26197,0.24148,-0.29887,0.04485,-0.013854,0.02774,0.44921,0.23636,-0.26222,0.1743,-0.22129,0.25605,-0.15755,-0.23042,-0.018845,-0.15102,-0.17409,-0.3821,0.098921,0.14911,-0.18883,0.012906,0.36133,0.067467,0.20204,-0.15289,0.42547,-0.56492,-0.10971,-0.085586,-0.12552,0.045804,0.18782,-0.44952,0.098932,0.0033424,-0.012264,-0.030189,-0.55276,0.013902,0.27255,0.027324,-0.18434,0.30773,0.3914,0.021877,-0.022334,0.56171,0.048994,0.012271,-0.052263,-0.024618,0.21066,-0.10751,0.40723,-0.17923,0.055509,-0.056366,-0.37745,0.16185,-0.29354,0.017336,0.42906,0.15258
train,-0.066727,-0.12246,-0.085721,0.013822,-0.51361,-0.37456,0.042589,0.040126,-0.10181,-0.022304,-0.082737,0.061617,0.092804,-0.0051137,0.18162,-0.052698,0.21549,-0.22496,0.38818,0.35331,-0.27131,-0.054043,-0.49283,-0.079256,0.16299,-0.037744,0.032483,0.47054,-0.044858,0.36131,-0.03995,0.48684,-0.2216,0.035871,-0.16894,0.10741,0.18089,-0.402,0.40281,-0.1612,-0.30864,0.02178,0.064967,-0.28972,0.26239,0.14035,0.055048,-0.47962,0.23231,0.41963,0.36808,-0.1465,0.0075372,0.039792,-0.38042,0.25244,0.056821,0.34001,0.16134,0.33499,0.38134,-0.0072759,0.12706,-0.23562,-0.43847,-0.16222,-0.62121,0.22471,-0.027898,0.2321,-0.2987,0.27133,0.098286,-0.28514,-0.20995,-0.19297,0.32496,0.15415,-0.19323,0.15266,0.054769,0.038399,-0.58759,-0.22437,-0.31286,-0.039921,0.16197,0.076119,0.36009,-0.41575,-0.10648,-0.32175,0.11447,0.1348,0.11191,0.37875,0.14678,-0.26119,0.0077683,0.1003,0.009452,-0.25205,-0.23306,-0.23405,0.051401,-0.10009,-0.057659,0.098394,-0.0018698,0.17943,0.046981,-0.068017,-0.29897,-0.16103,-0.33545,-0.44088,0.46361,-0.28291,-0.38464,-0.23121,0.49475,0.24735,0.011097,0.47806,-0.23989,0.063968,0.020753,-0.1345,0.27209,0.18848,0.17214,0.0031947,0.0085377,0.17622,0.0055541,0.34523,0.24561,-0.1425,-0.05687,0.62405,0.18193,0.20775,0.17326,-0.026233,0.46738,0.27774,0.0099579,-0.26237,-0.076098,0.20168,0.17472,0.092627,-0.0043742,-0.039132,-0.34969,-0.46171,0.10642,-0.49024,-0.45717,0.01019,-0.12349,-0.10421,-0.35831,0.019096,0.40331,0.053739,-0.12132,-0.01434,0.057176,-0.035365,0.13447,0.09251,-0.25269,0.29152,0.26072,0.47839,-0.16711,-0.095022,0.41938,-0.31246,0.21109,-0.15685,-0.082832,0.083352,-0.088521,-0.050085,-0.1948,-0.24453,0.079071,0.053867,-0.0092356,0.13325,0.081837,0.073092,-0.51226,-0.26561,0.022444,0.0056415,-0.014533,-0.23928,-0.28457,0.29392,-0.10938,0.016305,0.019682,-0.2597,-0.052032,-0.20647,0.37768,-0.17565,0.52235,0.10978,-0.073645,-0.068868,-0.10178,-0.22482,-0.54902,-0.24536,-0.006868,0.13012,0.13766,0.052102,-0.24516,0.12089,0.14186,-0.027575,0.14526,0.15925,0.047376,-0.064861,-0.11684,0.026233,0.15883,0.22838,-0.10283,0.22866,-0.0099407,0.50053,-0.13934,-0.015272,0.40631,0.14657,0.27942,-0.09937,-0.17761,0.097307,-0.10181,-0.13405,0.16785,0.043699,-0.14733,-0.22289,-0.010964,-0.23056,0.13053,-0.02951,-0.50334,0.011818,0.070993,-0.24037,0.11326,-0.10707,0.030361,-0.08403,-0.31572,0.014164,-0.12638,0.12696,-0.014704,0.11004,-0.25688,0.18251,-0.20169,0.33344,-0.012431,-0.52103,0.059673,0.11068,0.17077,-0.30408,-0.29946,-0.18082,0.059363,0.28226,-0.062141,0.28274,-0.064526,-0.057248,-0.21091,0.2586,0.30294,0.16675,-0.074879,0.066141,-0.068628,0.070427,-0.18536,0.21068,-0.24203,-0.22946
boy,0.23529,-0.22838,0.16723,0.059114,-0.20457,0.10469,-0.40782,0.18631,0.46335,0.13817,0.28022,0.084871,-0.11351,0.14358,0.3393,0.094016,-0.2592,-0.06097,-0.35092,-0.0020421,-0.014849,-0.011484,-0.2896,-0.46441,0.017272,0.2482,-0.35922,0.11469,-0.045007,0.15863,0.11324,0.26803,-0.096665,-0.11583,-0.0272,0.1076,0.36962,0.025947,0.13804,0.17124,0.075527,-0.16617,-0.35809,0.061639,0.25887,0.07208,-0.092192,0.055674,0.13324,0.13559,-0.10316,0.066711,-0.0086081,0.003704,-0.033618,-0.047568,0.15083,-0.070276,0.40227,0.18968,-0.15323,-0.041437,0.049417,-0.08632,-0.50838,-0.05489,0.36738,0.28648,0.24611,-0.14537,-0.012577,0.17425,0.069605,-0.20451,0.012959,0.22156,0.1728,-0.072902,-0.13829,0.20507,-0.24391,-0.27865,0.088296,0.35653,-0.12714,-0.076178,-0.21415,0.43958,0.42222,0.28725,-0.037669,-0.24731,0.23445,-0.14004,0.27934,0.33856,-0.03867,-0.077318,-0.32594,-0.27729,-0.092026,0.17895,-0.23983,-0.10444,-0.10124,-0.2102,-0.21379,0.1799,0.11371,0.107,0.020684,-0.3067,-0.061192,-0.033535,-0.55572,-0.42266,0.055753,-0.027025,-0.28004,-0.21672,0.039589,-0.23311,0.053673,0.78483,0.33655,-0.045685,0.0052817,0.1631,-0.26572,0.27934,-0.22138,0.057799,-0.25142,-0.017135,-0.13772,0.079591,-0.14458,-0.12607,-0.16845,0.055786,0.21085,0.39701,0.05042,-0.1751,-0.24135,0.44854,-0.094685,-0.083832,-0.19313,0.082524,-0.067067,-0.035245,0.071209,-0.1819,-0.077045,0.33589,-0.19221,-0.23679,-0.13919,-0.11822,0.26558,0.12397,-0.28367,-0.019571,0.15198,-0.22307,0.45264,0.04381,0.17451,0.16526,0.075582,0.053199,-0.52103,-0.22825,0.07162,0.14709,-0.089623,-0.04321,0.30653,-0.061673,0.29539,-0.46986,0.048358,0.23383,-0.22337,0.34015,0.05842,0.078555,0.23598,0.31088,-0.19694,-0.24845,0.14282,0.42729,-0.38216,-0.33136,-0.37646,0.085337,-0.23995,0.0031357,-0.074814,0.19448,0.045198,0.28612,-0.16511,-0.039248,-0.078754,-0.062873,-0.13235,-0.025489,0.78058,0.03604,0.15279,-0.14665,0.40366,-0.2437,-0.075261,-0.02875,-0.10622,-0.067267,-0.015642,0.054359,-0.39114,0.085002,0.022215,0.01923,-0.087057,-0.14343,0.15909,0.22235,0.2533,0.25901,-0.14411,-0.4414,0.10705,-0.01247,-0.19036,0.28929,-0.16615,0.047788,-0.037047,0.033997,0.4792,0.32481,-0.14023,0.083234,-0.20051,-0.0087186,-0.16827,-0.18694,-0.24492,0.097607,-0.19508,-0.35051,-0.081545,0.33608,-0.37752,0.033439,0.49886,0.11672,0.30195,0.25595,0.32827,-0.25779,-0.17568,-0.14844,0.087853,0.038838,0.062885,-0.25661,-0.22371,0.06761,0.16206,-0.06456,-0.55521,-0.12531,0.31722,0.015147,0.036329,0.027057,0.53621,0.15394,-0.064656,0.39731,-0.042758,0.38944,-0.1798,0.2653,-0.11713,-0.15541,0.19827,0.060366,0.32541,0.31303,-0.36061,0.15162,-0.34594,0.0061646,0.42666,0.3204
bus,0.10404,0.20087,0.33209,0.14164,-0.20449,-0.25891,0.20878,-0.36151,-0.21892,-0.055167,-0.035466,-0.14441,-0.12837,0.16232,-0.0872,-0.2372,0.18866,-0.19836,0.34312,0.3561,-0.51886,-0.060728,-0.19203,-0.29243,0.11878,-0.23743,-0.061822,-0.1001,0.016188,0.19203,-0.52087,0.50193,0.067006,-0.023936,-0.058772,0.2437,0.14214,-0.22785,0.14542,0.36755,0.034038,-0.2729,-0.29557,0.066449,0.25161,0.50975,0.063408,-0.56444,0.43088,0.22584,0.60986,-0.15765,0.17028,-0.054239,-0.22134,0.45764,-0.29423,0.047924,0.052572,0.25648,0.078342,-0.16513,0.14931,-0.14453,-0.43904,-0.1219,-0.24088,-0.25377,-0.0041486,0.30086,-0.29106,0.36743,0.50804,0.26203,-0.23786,0.13307,0.04737,0.22797,-0.36474,0.036799,0.2867,0.048875,-0.72839,-0.30835,0.17397,-0.18856,-0.12731,-0.13039,0.0077657,-0.66485,0.065059,-0.31876,0.10586,0.30479,0.29447,0.0044254,0.14861,-0.2466,0.0063778,-0.035988,-0.35569,0.041895,0.38572,-0.36462,-0.020882,0.054296,-0.04072,0.2085,-0.013346,0.5237,-0.14588,-0.071494,-0.30437,-0.21259,-0.15062,-0.35958,0.6594,0.15418,-0.43878,-0.22715,0.66309,0.18071,-0.032353,0.12143,0.30847,-0.42056,-0.088745,-0.27858,0.38617,0.27946,-0.040442,0.44312,0.1518,0.46925,-0.074204,-0.0202,0.18973,-0.31032,0.039333,0.4139,-0.17731,0.2216,0.34134,-0.1532,0.28113,-0.27044,0.12547,-0.33653,-0.013841,0.094846,-0.17479,-0.45144,-0.030938,-0.44636,-0.14227,0.17666,-0.092249,-0.33527,-0.45409,0.23462,0.09395,-0.24729,-0.43117,0.38825,0.64859,-0.27975,-0.30404,0.1927,0.11144,-0.13484,0.12888,-0.013555,-0.49476,-0.010486,0.038823,0.46713,0.40115,-0.11473,0.65862,-0.14639,0.12271,-0.20117,-0.45603,-0.091563,-0.33481,-0.0494,-0.38102,-0.40962,0.54566,0.069997,0.10822,0.097909,-0.25194,0.11155,-0.19874,-0.2213,0.060577,0.10724,-0.37682,0.016093,-0.37429,0.37714,-0.20209,-0.20322,-0.28728,-0.22569,-0.26373,0.2127,0.63252,-0.023516,0.032891,-0.12994,-0.060362,-0.2917,-0.24038,-0.033547,-0.27881,-0.72822,-0.00051182,-0.37876,0.092207,0.0083719,-0.38729,-0.017155,0.31614,-0.30828,0.21424,0.53272,-0.18667,0.22616,-0.040322,-0.30138,0.083876,-0.25478,-0.11651,0.20024,0.27267,0.14823,-0.109,0.57342,0.15994,0.071688,-0.10191,-0.15306,-0.48047,0.32965,-0.13682,-0.15642,-0.14948,-0.41364,0.27806,0.046114,0.06486,-0.35781,0.23229,-0.36641,0.24498,-0.34904,-0.030799,-0.26159,0.31037,-0.2547,0.055845,-0.2047,-0.55418,-0.18299,0.050223,-0.21227,-0.11278,0.18747,-0.20789,0.018628,-0.34939,0.27445,-0.18661,-0.5854,0.33506,0.35238,-0.093564,-0.2478,-0.040698,0.34351,0.17221,0.017244,-0.25998,0.45353,0.016892,-0.22613,-0.37021,0.13981,0.55558,-0.051444,-0.077604,-0.22383,0.33504,0.031141,-0.15136,0.34845,-0.070977,0.17317
rose,0.43727,-0.069934,-0.15863,-0.045743,-0.11118,-0.03337,-0.056945,-0.24258,0.20346,0.093714,0.31278,0.031461,0.11125,-0.18046,0.29549,-0.28098,-0.45283,-0.46309,-0.16335,0.29724,0.0046293,0.25123,-0.31177,-0.056529,-0.012296,0.13433,-0.22049,-0.048904,-0.01279,0.052139,-0.34395,-0.16321,-0.1452,0.027652,0.2994,-0.33038,-0.32149,0.022107,0.27378,-0.044352,0.077257,-0.13905,-0.23958,0.29557,0.22751,-0.16584,0.02258,-0.089352,0.34788,-0.21107,0.37783,-0.051191,0.016876,0.090188,0.20472,0.28154,-0.29182,-0.2473,0.26681,0.090966,0.32187,-0.079943,0.02232,-0.19294,-0.34317,-0.015404,-0.15098,-0.097695,-0.32973,0.334,-0.16807,-0.058756,0.30663,-0.31063,-0.037033,-0.046547,0.35188,0.31066,0.037252,-0.028674,0.075811,0.12381,-0.45263,0.077684,-0.28255,-0.24148,0.069465,0.13612,0.34171,-0.077882,-0.19198,-0.11938,-0.027812,-0.13929,0.1523,-0.28424,-0.080703,0.35828,-0.18478,-0.083296,0.25767,0.45628,-0.14912,-0.17506,-0.042085,-0.18864,-0.53862,0.15984,-0.11862,-0.042123,-0.13107,-0.20272,0.14515,-0.027578,-0.38021,-0.14227,0.12269,0.10885,-0.12167,-0.062324,0.0025202,0.22492,-0.10912,-0.21753,0.041812,0.26921,-0.28506,-0.055709,0.034541,0.22992,-0.24121,-0.10723,0.24627,0.039759,-0.18601,-0.08388,0.068531,0.042181,0.037973,-0.082666,-0.085782,0.19179,-0.020354,0.046422,-0.10051,0.44017,-0.065572,-0.036291,-0.20987,0.053849,0.24144,-0.4163,-0.34643,0.23724,-0.17844,0.083425,-0.086313,-0.014923,0.21792,0.076323,0.06553,0.54505,-0.0065294,0.043413,0.029361,-0.062347,0.1083,-0.25373,0.42447,0.28503,-0.010961,-0.0084435,-0.13023,-0.21818,-0.0027533,0.078555,-0.20899,0.088608,-0.21103,-0.087798,0.20933,0.0044239,0.18627,-0.33056,-0.31801,0.2178,0.052413,-0.23431,0.40224,-0.39036,0.11621,-0.33941,0.44413,0.31098,-0.1585,0.15541,0.043436,-0.059275,-0.15934,0.16874,0.10474,-0.062639,0.10537,0.13631,0.12832,-0.13367,-0.264,-0.0023595,0.23791,-0.12596,0.21369,0.14647,-0.82432,-0.19248,-0.031727,-0.0011628,-0.08351,-0.25817,-0.10978,0.17819,0.25229,0.12095,-0.23418,0.22487,-0.21822,0.16002,-0.12233,-0.00019552,0.18766,0.17166,-0.12833,0.051224,0.29729,0.19609,-0.13942,-0.35841,-0.023962,0.32655,-0.18842,0.10749,-0.27968,-0.093357,0.20972,0.19899,0.035466,-0.32126,0.021959,-0.35428,-0.0045327,0.11829,0.33632,-0.23977,-0.13005,-0.1629,-0.32008,0.050254,0.188,-0.12883,0.1417,0.22574,-0.2351,-0.063536,0.27482,-0.28979,0.15733,0.18326,-0.15566,0.24715,0.23895,-0.039555,-0.3054,-0.080037,0.019151,0.081844,-0.027546,-0.27558,0.43412,0.34268,-0.1324,0.28074,-0.14662,-0.18765,-0.25908,0.1843,0.15035,0.13889,0.14109,0.3101,0.046862,-0.011273,0.084227,-0.26797,0.0046474,0.24778,-0.13064,-0.20533,-0.083788,0.050163,0.20882,0.32327
ray,-0.12291,0.18059,0.077733,-0.1209,-0.50029,0.055836,0.084679,-0.40981,-0.38545,0.1779,0.17719,0.53248,-0.12005,-0.08728,0.44605,-0.37123,-0.061248,0.037794,-0.096912,0.21424,-0.20472,0.28292,-0.50765,-0.11524,0.034629,0.106,-0.37401,0.18813,0.449,-0.32076,0.064449,0.11733,0.11473,-0.27006,0.42062,-0.054398,0.061707,-0.20323,0.24959,0.2054,-0.015705,-0.48625,-0.27193,0.49882,0.0672,-0.17807,-0.031705,-0.086405,-0.36505,0.24002,-0.48319,0.35146,-0.13369,0.10137,0.14346,0.0084887,0.013199,-0.070001,-0.1495,0.25556,-0.08912,0.18706,-0.13648,0.12427,-0.47057,0.10153,-0.24389,0.072017,-0.43265,-0.26762,-0.13316,-0.25698,0.54066,-0.38118,0.1386,-0.021219,0.39291,-0.17449,0.2828,0.32822,-0.088197,0.14767,-0.45075,-0.11637,0.080812,-0.20416,0.21971,-0.082377,0.40534,-0.34296,-0.082603,0.41707,0.12119,0.0042816,0.5296,0.0059835,0.28357,0.058074,-0.3602,-0.10482,0.18519,-0.21408,-0.082199,-0.12452,-0.18641,0.09728,-0.085728,0.06196,-0.032705,-0.1498,-0.13336,-0.12808,-0.20618,-0.16031,-0.098065,-0.26022,-0.25581,-0.070999,0.42256,0.25781,0.30663,-0.40082,0.12005,0.13757,0.067391,-0.27826,0.41631,0.18926,0.30066,-0.17341,0.088298,0.17606,0.020101,0.46937,0.21157,-0.056897,-0.41358,-0.021606,0.090334,0.31397,0.0019247,0.16043,0.26441,-0.23023,-0.28143,0.075314,0.14273,0.007369,0.16939,-0.12854,0.5039,-0.42581,-0.091146,0.51654,-0.17737,0.091549,-0.11428,0.070912,0.045336,-0.34287,0.1487,0.30162,-0.32944,0.070659,0.087696,0.45287,-0.21443,0.38027,0.28105,0.27753,-0.34812,0.1644,0.03806,-0.41044,0.12164,0.24189,-0.3994,-0.18016,0.24335,-0.054434,0.42222,-0.1086,-0.3933,-0.072144,-0.31147,0.16054,0.5727,-0.17769,0.10461,0.30648,-0.26194,-0.042081,0.095436,-0.022094,-0.0021877,0.052708,0.15347,0.40907,-0.43861,0.018424,0.11229,-0.45633,0.026067,0.1801,0.010057,-0.0658,0.18157,-0.46938,0.434,-0.37481,0.35807,0.11561,-0.21853,-0.23164,0.088176,-0.18551,-0.070775,-0.26823,-0.14771,-0.10817,-0.0047496,0.16132,-0.27742,0.20272,-0.092688,-0.032879,-0.12641,-0.050533,-0.23713,0.14428,0.2675,0.23494,-0.29989,-0.1104,0.17385,0.30624,0.076556,-0.11591,-0.69612,0.095169,0.2651,0.099134,0.014037,0.61663,-0.2208,0.21111,-0.25667,-0.14936,-0.0097057,0.080963,0.014364,-0.20275,-0.3931,0.028064,-0.25443,-0.097657,0.15858,0.080355,-0.038185,0.16598,0.13515,0.79972,0.055577,0.078919,0.18646,-0.537,-0.50757,0.060528,-0.32096,-0.3955,-0.45989,0.028648,-0.082638,0.25162,-0.31397,-0.088941,0.543,0.14886,0.18433,-0.10375,0.17414,0.076921,-0.012479,0.015451,-0.10359,0.3144,0.1004,0.67728,-0.15546,0.20997,-0.13966,-0.029182,0.36709,0.62198,0.31993,-0.18084,0.61009,0.22631,-0.015922,0.042002
fox,-0.45712,0.067445,-0.30811,0.073758,0.22847,-0.018223,0.1098,-0.43053,-0.24699,0.12198,0.34093,0.13586,-0.13969,-0.31217,0.20225,0.18166,-0.1937,-0.17641,-0.023573,-0.03656,-0.44773,0.41795,-0.32965,-0.43756,0.10521,-0.15573,-0.18,-0.013822,0.43655,0.17379,0.30671,0.18724,-0.20087,-0.094367,-0.032838,-0.16497,-0.14314,-0.25371,0.24242,-0.018855,-0.30644,0.13633,-0.24562,0.36694,-0.038495,0.23028,-0.29451,-0.05036,0.050383,0.26813,0.22799,-0.081557,0.17978,0.30716,-0.20409,-0.046894,0.39371,-0.043548,0.31934,0.44045,0.067117,-0.21158,0.27444,-0.018465,0.16529,-0.042443,0.043269,-0.10012,-0.33574,-0.3979,0.14538,-0.029146,0.24758,0.036809,0.10377,0.40203,0.48053,0.16258,-0.039308,-0.39572,0.028243,-0.56604,0.081881,0.38404,-0.021683,0.29755,-0.28628,-0.12048,0.17645,0.24526,-0.29417,-0.3444,0.33227,0.02363,0.4226,0.24481,-0.12516,0.51459,-0.075575,-0.13917,0.014958,0.44802,0.16889,-0.04048,-0.40317,0.14697,-0.30298,0.17441,0.11642,0.10257,0.0097979,0.0036474,-0.15151,-0.57104,-0.087105,-0.064673,0.18066,0.24074,-0.26382,0.10145,0.058636,-0.02443,0.14687,0.15499,-0.13359,0.18164,-0.034568,0.21199,0.18317,0.31595,0.019045,0.17227,0.033042,0.2253,0.13841,0.30871,-0.054619,0.14141,-0.36901,0.48083,0.11447,0.20604,0.045413,-0.030174,0.11713,0.24842,0.24582,-0.13605,-0.22789,0.19761,0.142,-0.26857,-0.41011,0.31812,0.11078,0.016965,-0.13537,0.0082597,0.018289,-0.32363,0.51058,0.0966,-0.55436,-0.28411,0.25249,-0.081891,0.3062,-0.17087,-0.094338,0.25676,-0.43506,0.30432,-0.24907,-0.16516,0.09902,0.41625,-0.36525,0.38195,0.090102,-0.14953,-0.27177,0.1182,0.16714,-0.034181,-0.19635,-0.54955,-0.20585,-0.074161,0.095202,-0.098637,0.17442,-0.3342,-0.10931,0.097747,-0.19753,0.3265,0.068617,0.22366,-0.070239,0.29443,0.49228,0.15356,-0.06426,0.22256,0.3206,-0.32548,0.10357,-0.26211,0.071616,-0.29912,-0.0019685,-0.26203,0.16472,-0.31777,0.040158,-0.20549,0.18842,-0.32834,-0.17625,0.19394,-0.063695,-0.15639,-0.088149,0.21168,-0.20629,-0.43405,-0.1982,0.054073,-0.021451,0.57354,0.23369,0.17521,0.21059,0.25822,-0.16066,0.24581,-0.38076,-0.032386,0.084516,-0.12798,-0.31986,0.1259,0.12905,0.10942,0.24233,0.16444,0.20357,0.037438,-0.20148,0.13053,-0.064699,-0.40866,-0.065845,0.44699,-0.11262,-0.017143,0.35516,0.00029876,-0.019375,-0.0029803,0.40723,0.28728,0.23972,-0.11393,-0.23973,0.091869,0.20623,0.29762,-0.031368,-0.023179,-0.61414,0.19542,0.22912,0.093001,0.091953,-0.37553,-0.033981,0.21075,0.18498,0.16775,0.049697,0.22666,0.27969,0.29197,0.48493,-0.28437,0.49796,0.46031,-0.47409,-0.15145,0.17188,-0.39279,0.66186,-0.091498,0.073166,0.05826,0.3304,0.090494,0.24334,-0.071208
bowl,0.1516,0.014299,-0.33311,0.16502,-0.24354,-0.29681,-0.036223,-0.35475,0.23427,-0.12857,0.18627,-0.066772,0.1916,-0.36901,0.38725,0.2469,-0.4875,0.091558,-0.27793,0.1231,0.030646,0.20512,0.24033,-0.15556,-0.10119,0.63765,-0.46247,-0.48952,0.36934,0.43845,-0.27931,-0.061752,-0.23066,-0.22557,0.4559,-0.18341,0.12095,-0.72555,-0.36771,-0.011024,-0.024786,-0.081856,-0.25386,0.35849,0.12987,0.523,-0.033417,0.21053,0.57595,0.36071,-0.35616,-0.27762,-0.035025,-0.063165,-0.028709,0.1171,-0.14574,0.69162,0.62946,-0.047697,0.20709,-0.333,-0.072189,0.1616,-0.012019,0.24638,-0.049175,0.021676,-0.03443,-0.20509,-0.21237,0.30639,0.28259,-0.17671,0.27031,0.17493,0.081322,0.19162,-0.063668,-0.43825,-0.14335,0.50182,-0.071234,0.08349,-0.50321,-0.20037,0.27553,0.33066,0.63962,-0.39184,-0.23695,-0.10517,0.69354,-0.48819,-0.079879,-0.017676,-0.016292,0.18556,-0.2023,-0.14323,0.052796,0.25865,-0.034464,-0.11587,0.28563,-0.11578,-0.21474,0.71373,-0.49714,-0.29818,-0.32926,-0.76774,0.35451,0.17538,0.25269,-0.50074,0.32676,0.10946,-0.50822,-0.0049824,0.68394,-0.54395,-0.34634,-0.22697,0.22035,0.40101,0.4692,-0.021008,0.21603,0.62832,-0.038989,0.14033,-0.11794,0.090692,-0.13461,-0.6099,-0.044753,-0.69608,0.51051,0.084896,0.46707,-0.049628,0.36451,0.24918,-0.11289,0.7311,-0.018003,-0.33616,-0.37762,0.069076,0.21349,-0.011269,-0.53912,0.22825,0.093664,-0.43395,0.16587,0.49186,0.66932,0.56566,0.17723,-0.21473,-0.098448,-0.13776,0.26384,-0.057918,-0.19911,0.12847,0.46424,0.063823,-0.0047011,0.0094871,-0.15826,-0.30328,0.18581,0.36188,-0.13268,0.20585,-0.12632,-0.032396,0.31872,0.16651,-0.23373,-0.72602,-0.64175,0.29504,-0.083935,-0.23211,-0.016964,-0.2448,0.11453,-0.33602,-0.12976,0.046132,-0.38468,0.33618,0.020254,0.28211,0.04211,0.17699,0.4142,0.23126,0.52754,-0.46618,0.11678,-0.35801,-0.13367,0.14342,0.02523,-0.16493,0.72747,0.41442,-0.73055,-0.43786,0.058955,0.024732,0.29463,-0.21564,0.1143,0.11559,-0.11044,0.34487,-0.2017,0.086223,-0.52954,0.15376,-0.47707,-0.26109,-0.34839,-0.037482,-0.26963,0.016387,-0.15715,0.12387,-0.067929,-0.17215,-0.12851,-0.1941,0.0063515,0.38161,-0.33788,0.26123,0.10921,0.028607,-0.1648,-0.0079294,0.28222,-0.42163,0.0041579,0.052328,0.99328,-0.15858,-0.18925,-0.12114,0.17209,0.2762,-0.27902,-0.23983,-0.039098,-0.092997,-0.24866,0.55718,0.19205,-0.16167,-0.79549,0.21508,-0.41544,0.39071,0.35727,0.17929,-0.17655,-0.29639,-0.121,0.11951,-0.028935,-0.42252,0.32675,0.01012,-0.16682,0.077208,0.22825,0.065469,0.040166,-0.14177,-0.29044,-0.79405,0.29104,0.62785,0.083935,-0.071612,-0.30894,-0.5546,0.31959,0.20542,0.099666,-0.068109,-0.26274,-0.36761,-0.43896,-0.036341
orange,-0.20818,-0.008439,-0.10222,-0.1664,0.035406,-0.34909,0.038918,0.21465,0.15655,0.24186,0.45252,-0.12921,0.11893,-0.24667,0.22711,0.22605,-0.40268,-0.14925,-0.14787,0.41705,0.055747,0.030423,-0.24747,0.072806,-0.46576,0.046393,-0.19109,-0.57152,0.036231,0.10463,-0.59516,0.20575,0.142,0.18659,-0.08124,-0.11775,-0.21691,-0.14366,0.18986,-0.2338,0.023698,-0.15202,-0.19538,-0.13468,0.24509,0.0057344,0.063321,-0.22228,-0.14411,-0.14219,-0.17561,-0.15469,-0.41499,0.11473,-0.21904,0.25652,-0.021783,0.37884,0.61805,0.113,0.045459,0.41792,0.23088,-0.2385,0.030828,0.057883,-0.33007,0.14134,-0.24882,0.020653,-0.33313,-0.074879,-0.13292,-0.22732,-0.038479,-0.15015,-0.031236,0.24146,0.0064065,-0.12475,-0.14285,0.20411,-0.46884,-0.19326,0.31153,-0.037367,0.30372,0.44539,0.1903,-0.44859,0.087202,-0.069971,-0.36574,-0.039411,0.3885,-0.12374,0.05831,-0.069789,0.26747,0.098021,-0.10911,-0.084531,0.27244,0.094107,-0.20176,-0.054238,-0.12032,-0.024125,-0.13944,-0.18595,-0.47904,0.078621,-0.061642,0.049781,0.10627,0.05572,-0.19465,-0.28246,-0.38032,0.30621,0.55717,-0.1649,0.36856,0.18422,-0.10548,-0.2246,0.050124,0.046646,0.10106,0.34437,-0.29992,0.28474,0.066447,0.15237,-0.37312,-0.20683,0.041924,-0.58057,-0.054362,0.17074,0.31924,0.68522,-0.30436,-0.047289,-0.19838,0.38314,-0.41532,-0.094204,-0.24129,0.17019,0.018822,-0.52046,-0.48797,0.027998,0.078686,-0.15116,-0.058652,0.0024066,0.52239,0.465,0.36292,0.11046,-0.7347,0.24291,0.50221,0.23716,-0.15223,-0.18198,0.36346,-0.30207,0.035095,-0.62871,-0.40142,-0.43173,-0.047129,0.33332,-0.0021667,-0.25113,0.19504,0.14805,-0.42431,-0.0018838,0.20289,-0.014939,0.068778,-0.0081019,0.20232,-0.057349,-0.097247,-0.14194,0.09343,-0.33447,0.28864,0.0071038,0.13176,0.0027334,0.17683,0.24176,-0.19935,0.077757,0.25574,-0.10277,-0.2859,-0.099454,0.61823,-0.43032,-0.25868,0.28154,0.17327,0.032705,-0.086836,0.22105,-0.51133,-0.46239,-0.085818,-0.09262,0.2939,-0.014769,-0.059096,0.087859,-0.43524,-0.3755,-0.12757,0.22072,0.24404,-0.17698,-0.23659,0.065872,0.27957,-0.44167,0.030452,0.20348,-0.20312,-0.11982,0.28464,-0.48641,0.28702,0.20017,-0.36569,0.22038,0.016334,0.14198,0.0021101,0.13817,-0.23971,-0.15197,-0.048438,0.040728,-0.1044,-0.16518,0.27434,0.094167,0.0099997,-0.55277,0.1923,-0.0020351,-0.011756,0.15045,0.089228,0.057693,0.23,0.26531,0.20164,-0.086874,-0.47264,-0.60636,-0.38227,0.53159,0.014027,-0.010674,-0.3577,-0.43637,0.036598,-0.027161,-0.1111,-0.067923,0.24487,-0.27767,-0.21606,0.2682,0.28572,0.00072846,0.0063654,0.18852,0.16209,-0.028763,0.15669,-0.121,-0.58679,-0.48721,0.07229,-0.77044,0.12324,0.11623,-0.18208,-0.17735,-0.46251,-0.14701,0.18081,-0.18725
baby,-0.014687,-0.11762,-0.0042118,0.16084,-0.18936,-0.15461,-0.075847,0.20266,0.0074485,-0.13727,0.24986,0.23557,-0.058379,0.04064,-0.10599,-0.357,-0.01099,-0.26213,-0.52175,0.084148,0.10423,0.20944,-0.26697,-0.21566,0.042243,0.21457,-0.15465,-0.050227,-0.022311,0.021752,0.35358,0.23919,-0.20445,0.049857,0.001139,0.20501,0.2272,-0.20712,0.075778,-0.2261,0.025931,-0.29489,-0.090333,-0.15058,0.28732,0.22542,0.01996,0.024209,0.010526,0.10939,0.16225,-0.065222,0.075611,-0.099311,0.33964,0.084519,0.21418,0.17403,0.15191,0.28007,0.16337,-0.03236,0.027605,-0.020156,-0.20684,-0.27756,0.26216,0.27868,-0.0017933,0.093888,0.17772,0.02079,0.37544,-0.23023,-0.19205,0.042362,0.39526,0.12283,-0.33065,0.25583,0.0059621,-0.3477,-0.14559,0.40668,-0.061228,-0.11537,-0.38145,0.049063,0.23726,-0.17023,0.16483,-0.0081163,-0.045631,-0.053126,0.26444,0.40711,0.012023,0.045944,-0.11757,0.040848,-0.11229,-0.037921,-0.25063,-0.2595,-0.09467,-0.1679,-0.21415,0.18444,0.094172,-0.066701,0.03359,-0.10621,-0.54804,0.18407,-0.043676,-0.33973,0.019796,-0.089018,-0.1925,0.0090337,0.11475,-0.075314,-0.19307,0.33185,0.23697,-0.24875,0.099574,0.11952,0.16196,0.34619,-0.18232,0.10546,-0.14827,0.34904,0.2133,-0.058542,-0.46622,0.46835,-0.1849,-0.10554,0.22647,0.068898,0.30222,-0.040488,0.13073,0.34882,0.052389,-0.17682,-0.042306,0.32042,-0.053314,0.038471,-0.012204,-0.11724,0.074698,0.2177,-0.12222,-0.26937,0.096831,-0.13494,0.39781,0.12455,-0.051417,0.15698,-0.082229,0.21345,0.39119,-0.061855,0.25416,0.24247,-0.046736,-0.28444,-0.25004,0.028408,0.15247,0.059256,-0.10557,-0.10794,-0.10098,-0.22886,0.2514,-0.4686,0.06218,-0.070517,-0.13165,-0.056764,-0.03378,-0.1157,0.34272,0.079004,-0.19138,-0.013299,-0.036097,0.51769,-0.25658,-0.23886,0.060219,-0.088108,-0.31185,-0.097113,0.17652,0.48566,0.45509,0.12051,0.044565,-0.26133,-0.77694,-0.28548,0.22496,-0.14769,0.68599,0.018292,-0.25126,-0.37424,0.30791,-0.33509,-0.047733,-0.046981,0.3025,-0.053168,-0.31626,-0.25275,0.00011141,0.14415,-0.45101,0.028396,-0.33381,-0.027286,0.2784,-0.025077,0.046004,-0.031139,0.19951,-0.22587,-0.20605,0.020269,-0.54847,0.084398,0.072174,-0.045838,-0.3572,0.055093,0.35012,0.14992,-0.43296,0.27753,-0.16866,0.1112,-0.14292,-0.071489,0.064143,0.26728,-0.39303,0.2753,0.25009,0.10383,-0.083999,0.066572,0.27067,0.24169,0.24287,0.54096,-0.13559,-0.40881,-0.27108,-0.26681,-0.2592,0.13068,0.18379,0.14404,-0.2557,-0.36412,0.2706,0.20595,-0.3805,0.12704,0.47675,0.01425,-0.10818,0.12644,0.2263,-0.21362,0.040232,0.41195,0.13566,0.17102,-0.060544,0.22786,0.2254,0.080316,0.092423,-0.1124,0.28744,-0.16397,-0.30255,-0.2573,-0.032882,0.18813,0.22884,0.32529
tank,-0.062592,-0.059886,-0.017834,0.45924,-0.29712,-0.016889,-0.38709,-0.38845,-0.16248,0.34453,-0.033834,-0.060674,0.17409,-0.14164,0.43738,0.070716,-0.16208,-0.0088241,0.018883,0.58535,0.36069,-0.19597,-0.37003,-0.38664,-0.2032,-0.25081,0.019198,-0.05806,-0.063929,-0.072808,0.16673,0.31041,-0.43129,0.09003,0.082035,0.034028,0.37146,-0.080537,-0.007997,-0.23392,-0.16956,0.33369,0.12789,-0.53888,0.11445,-0.037822,-0.20966,0.13581,-0.017108,-0.22682,-0.21927,-0.15453,0.35713,-0.19234,-0.061819,0.0068442,0.23469,0.19518,-0.29191,-0.031316,0.30165,-0.32679,-0.16804,0.12,-0.31682,-0.39301,-0.47936,0.29565,-0.21519,-0.078447,-0.18961,-0.32888,-0.3144,0.12327,-0.16578,-0.082707,0.12202,0.33303,-0.49432,-0.12717,0.12672,-0.16377,-0.31606,-0.4759,-0.56401,-0.33459,-0.036745,-0.049351,0.22273,0.0063964,0.1522,-0.34297,-0.057601,0.50605,0.15612,0.32057,-0.083774,-0.063539,0.0084329,-0.18527,-0.27902,-0.14416,0.02406,0.12105,0.38023,-0.051183,-0.3363,0.62022,0.041763,-0.37962,-0.06166,0.36658,-0.45988,-0.54286,0.03123,0.60168,0.37932,0.18186,-0.29812,0.30465,0.46735,-0.11452,0.10958,0.36548,0.15605,-0.21054,-0.22961,-2.43E-05,0.40704,0.12843,0.079011,0.098792,-0.074264,0.13038,-0.22867,0.37524,-0.14615,-0.25532,0.066924,0.14344,0.41283,0.31839,0.09544,0.029988,0.29707,0.17597,0.16393,0.091177,0.08553,-0.15093,0.80716,0.23515,-0.47397,-0.060535,0.11074,-0.077288,0.32338,-0.14182,0.221,-0.43741,0.13937,-0.71037,-0.12687,0.54947,0.34746,0.044001,-0.20722,0.023883,0.013511,-0.15201,-0.18593,0.10076,-0.018665,-0.40572,0.060872,0.046337,0.041197,-0.26609,0.02565,-0.013956,-0.17083,0.1639,-0.12877,0.074423,0.013113,0.5438,0.053274,-0.016593,0.10514,0.13752,0.10387,-0.5726,0.10007,0.097392,-0.3305,-0.020393,0.12188,0.14593,-0.20351,-0.2086,0.14274,0.085621,0.40379,0.22057,-0.11163,-0.6266,-0.37892,-0.37219,0.046684,0.01297,0.54171,0.28746,0.08814,0.23984,0.24282,-0.35692,-0.31443,-0.59834,0.25706,0.26004,-0.077733,0.099791,-0.16033,-0.017389,-0.35798,0.05785,-0.20642,0.36677,-0.021485,0.47812,0.14775,-0.22123,0.11087,-0.059395,-0.072485,0.2353,-0.14405,-0.26441,0.079696,-0.063045,0.4661,0.25169,0.41962,0.08475,-0.54672,0.17749,0.27877,-0.35621,-0.12979,-0.02772,-0.0055892,0.28562,-0.76635,0.10923,0.14755,0.28255,-0.047136,0.25492,0.057034,0.089205,-0.22042,-0.45839,-0.11424,-0.21758,-0.48568,-0.26187,0.12666,-0.20898,-0.1928,0.1249,0.010445,-0.12121,-0.16571,0.31398,0.11746,-0.10639,0.45421,0.25254,-0.016372,0.12162,-0.13473,0.078146,-0.037426,-0.26214,-0.015317,-0.002883,-0.14144,-0.004339,-0.78993,0.02658,0.12464,-0.33624,0.16323,0.032897,-0.018123,0.043489,-0.67102,0.59721,-0.17812,0.34488
bear,-0.15329,0.14793,-0.48339,-0.032128,-0.28098,-0.036804,-0.10571,0.0040263,0.18153,0.44411,0.29259,0.14056,0.076775,-0.46233,-0.1539,0.020332,0.11372,0.23323,0.0091276,0.0079837,0.04132,-0.15629,-0.29974,-0.095937,-0.049037,-0.056627,-0.093206,-0.012618,0.23242,0.097158,-0.1811,0.026048,0.039746,0.17304,0.18578,-0.11017,-0.41935,-0.13973,0.17684,-0.19044,-0.11368,0.20604,0.25434,0.20903,-0.058909,0.36778,0.15606,-0.052236,0.18478,-0.45821,-0.16766,0.090331,-0.15605,0.062677,0.032686,0.31627,0.055697,0.11201,-0.039709,0.15512,0.022208,-0.113,0.11291,0.37293,-0.20779,-0.19353,0.30402,0.3017,-0.49956,-0.035659,0.34782,-0.22282,-0.044919,-0.36379,-0.30753,-0.38181,0.21454,0.23996,-0.46087,-0.16895,0.15933,-0.21401,0.094594,0.027936,-0.40737,-0.044544,-0.26651,0.44162,0.55246,-0.025128,0.08982,-0.34604,0.19052,-0.1791,0.1851,0.026325,-0.027873,-0.13141,0.076971,0.29784,-0.13616,-0.10665,-0.28288,-0.22732,-0.31689,0.092435,0.036257,0.35391,-0.1959,-0.2622,0.41206,-0.20681,-0.33717,-0.042457,0.086475,-0.20166,0.40566,-0.023466,-0.26079,0.18559,0.17767,-0.26464,-0.05598,0.10763,0.17415,0.37885,-0.20732,0.54178,0.21982,0.29613,-0.19793,0.17424,-0.33255,0.40926,-0.0605,-0.18323,0.11789,-0.19007,-0.40069,0.095021,0.027725,-0.093069,0.027759,0.53834,0.59103,0.45468,-0.18996,-0.13241,0.016474,0.41847,0.056239,0.09653,-0.10234,0.050405,-0.26527,0.19441,-0.10898,-0.14783,0.15856,0.092264,0.20549,0.35223,-0.48732,-0.19332,0.018045,0.042237,0.040866,-0.085392,-0.073278,-0.066835,-0.60269,-0.23187,-0.74968,-0.15138,0.11242,0.084872,0.335,0.20724,0.080602,-0.064383,-0.23544,-0.25052,0.26214,-0.13227,0.10455,0.0017691,-0.058411,-0.028296,0.35644,-0.30686,-0.023227,-0.085211,-0.063812,0.11624,0.11279,-0.089916,-0.1037,-0.061783,-0.28321,0.068729,0.21552,0.24635,0.071635,0.34096,-0.15056,-0.41467,-0.41815,-0.24637,0.057038,-0.23386,0.015943,0.14894,0.19756,-0.22043,0.18728,-0.76799,-0.03196,0.14894,0.22565,-0.018387,-0.012358,-0.13056,-0.16841,0.50196,-0.19717,-0.1798,-0.13815,0.079743,0.095046,-0.0085122,0.19323,0.25935,-0.069851,0.10342,-0.29293,0.14891,-0.19554,-0.11735,0.054638,0.018276,-0.14431,-0.072805,0.14934,0.19843,-0.051341,0.10438,-0.11647,0.0042302,-0.067663,-0.067638,-0.056018,0.10014,-0.10404,0.069954,-0.11363,0.072042,-0.15561,0.1235,0.039993,-0.1833,0.067074,0.51573,-0.0095257,-0.10293,-0.36582,-0.25776,0.074739,0.11089,-0.3018,0.020224,-0.032389,0.16088,0.23043,0.019558,-0.2881,-0.44931,0.21827,-0.19724,-0.12259,0.22728,0.18406,-0.30323,-0.072515,0.28081,0.59919,0.10246,0.029269,0.197,-0.52267,-0.2203,-0.030958,-0.07035,0.32634,-0.063207,0.02908,0.036045,0.050541,0.079158,0.0017179,0.059936
chair,0.23554,-0.53559,-0.063912,0.30485,-0.20825,-0.13291,0.15915,-0.13447,-0.22322,0.11741,0.10773,0.17145,-0.0321,-0.038258,0.26764,-0.68989,0.19874,-0.14287,-0.3051,0.7684,-0.22239,-0.041204,-0.31305,0.021408,-0.043946,-0.2272,0.011641,-0.099729,-0.20019,0.11212,0.11342,0.13502,0.24697,-0.2174,0.006521,-0.14819,0.31487,-0.24839,0.049511,-0.0001052,-0.036415,0.063044,-0.54785,-0.11087,0.34748,-0.13908,-0.45539,-0.32853,-0.074955,-0.18735,0.22254,-0.28091,-0.17171,-0.33337,0.13234,-0.40765,0.15536,0.25613,0.40899,0.40109,0.24956,-0.28252,-0.078146,-0.24854,0.05498,0.095081,0.058122,-0.19496,0.094513,-0.14458,-0.39849,0.051168,0.48402,0.19944,0.033306,-0.1803,-0.072998,0.15583,-0.37446,0.084676,0.34096,0.095057,-0.11708,-0.31532,-0.13155,-0.10118,0.028821,-0.012437,-0.43261,0.18099,0.52071,-0.12263,0.33469,-0.31475,-0.01397,0.27702,0.12299,-0.19443,-0.37512,-0.24433,-0.13384,-0.040532,0.44568,-0.19355,0.21889,0.10504,0.099967,0.39518,0.079466,-0.10943,0.23773,-0.4414,-0.10827,-0.096038,-0.045985,-0.061226,-0.20467,0.32199,0.12736,0.052122,-0.34186,0.015221,0.028618,0.1573,0.11138,0.27734,0.066764,0.4037,0.18118,0.16436,0.13548,0.078027,-0.22845,-0.022875,0.33588,-0.19819,0.12345,0.1057,-0.077934,0.28375,-0.0019585,0.31051,-0.0074799,-0.06394,0.12098,0.26675,-0.036738,-0.50364,-0.22427,0.11293,0.28318,0.054203,0.021262,0.1581,-0.35512,0.33643,-0.15151,0.021059,0.0055202,0.14082,0.35802,0.77198,-0.18383,0.38308,0.46908,0.33964,-0.1236,0.17827,0.097741,-0.4176,0.050542,-0.38814,-0.40065,0.13539,-0.52171,0.062327,0.21588,0.20462,0.079241,-0.35055,0.16122,0.1845,-0.30982,-0.056095,0.10311,0.31646,0.082242,-0.0042419,-0.11196,0.027408,-0.16395,0.11663,0.18296,-0.086407,-0.45943,0.023659,-0.20712,-0.34972,-0.42185,0.064546,0.15808,0.21002,-0.38953,-0.22152,-0.30814,-0.49014,-0.48953,-0.45409,0.027564,-0.28766,0.49118,-0.21715,-0.037939,0.0443,-0.0312,0.21074,0.050129,-0.10056,0.36798,0.028108,-0.22271,0.3532,-0.50212,0.38348,-0.49033,0.056468,-0.072935,-0.11295,-0.066761,-0.066594,0.42971,0.24017,0.033967,0.077214,-0.084919,0.17636,-0.013476,0.21192,-0.29988,0.28858,-0.18848,0.37782,-0.11871,-0.13401,-0.026729,0.23414,0.14448,-0.46614,-0.030619,0.037949,0.32903,-0.083406,0.00078119,-0.087439,-0.26393,-0.047913,-0.70351,0.1329,-0.38996,0.026971,-0.39285,0.056071,0.023571,-0.29713,0.010331,0.06632,0.31147,-0.21053,0.11419,0.33933,-0.22771,-0.30387,0.20565,0.043279,-0.10485,-0.20968,0.18877,0.43375,-0.28438,-0.22859,-0.083672,0.33434,0.043468,0.18199,0.20158,0.031145,0.035932,0.082935,0.18812,0.13008,0.22148,-0.13175,0.30458,0.076229,-0.28071,-0.19438,0.05006,-0.1152,0.29529,-0.12993
apple,0.26407,0.30485,0.049004,-0.44378,0.16519,-0.094734,-0.013514,-0.17237,0.037485,0.34963,0.14335,-0.11135,0.072474,0.12725,0.15805,-0.1601,0.28202,0.10288,0.26432,0.068018,-0.26954,-0.038155,-0.11638,-0.15829,0.047974,0.023934,-0.060495,-0.33511,0.02059,-0.1372,-0.29778,-0.1539,-0.17963,0.35599,-0.099341,0.1365,-0.11602,0.011756,0.054813,-0.03741,0.13363,-0.19601,0.035644,0.19569,-0.020126,-0.062379,-0.10362,0.031371,0.2558,-0.035944,0.43562,0.15935,-0.061345,0.0239,0.064619,0.27386,-0.24069,-0.40852,0.58953,0.36572,0.14813,0.18063,0.097062,-0.34981,-0.106,-0.0036307,0.51771,-0.16047,-0.15207,0.056044,-0.12839,0.26818,0.9843,0.077782,-0.090505,0.47302,-0.1223,0.28481,-0.35226,-0.37645,0.082483,0.17666,0.14278,-0.13554,-0.14268,0.20705,0.050668,0.3476,0.68725,0.40674,0.17459,-0.063433,0.2229,-0.050108,0.64285,-0.25858,-0.43007,-0.083644,0.069048,-0.13918,0.4581,-0.058684,0.070426,-0.18323,-0.2665,0.44541,-0.28674,0.71248,-0.080884,0.51651,-0.21609,-0.11793,-0.044654,0.35896,-0.45401,-0.27439,0.15355,-0.063333,0.1391,0.21648,0.62589,-0.10769,-0.036908,0.5392,0.10288,-0.22222,0.018197,-0.15545,-0.10064,0.5412,-0.49032,0.24027,0.099525,0.080817,0.14137,-0.0021914,-0.32646,-0.22709,0.20476,-0.0085315,-0.0056915,0.277,-0.081657,-0.075309,0.11987,0.42531,-0.22801,0.029261,-0.16114,0.05431,0.17258,-0.10499,-0.19416,0.34781,0.22647,-0.27635,0.33203,0.18669,0.27309,0.32523,0.33029,0.29683,-0.24338,0.22298,0.070893,0.41179,0.053859,0.019331,0.053415,-0.1857,-0.14427,-0.048845,-0.37436,-0.18501,-0.1293,0.12638,0.051261,0.0096308,0.32151,0.024242,-0.055879,0.20446,0.18875,-0.060065,-0.14438,0.034998,-0.20661,-0.28817,0.31513,-0.062358,0.079819,-0.4157,0.53722,0.31967,-0.035022,0.011352,-0.30345,0.20607,-0.51615,0.31873,0.04044,0.63268,-0.071382,-0.51444,0.034794,0.25412,-0.65638,-0.36269,0.22429,0.032849,0.22682,0.42434,-0.16011,-0.11739,0.019142,-0.12191,0.39394,-0.64099,0.0010947,0.19663,-0.12875,-0.046008,-0.11206,0.29879,0.021683,-0.23807,-0.048222,-0.42882,-0.24903,-0.1252,-0.34732,-0.049479,-0.079225,-0.085041,0.091576,-0.10808,-0.54487,0.19163,-0.13753,0.22257,0.091961,-0.20993,-0.1612,-0.12491,-0.0038135,0.14662,0.18825,-0.034306,-0.21215,0.33007,0.28117,0.070332,0.21152,-0.16706,0.31781,-0.24696,0.45219,0.083613,-0.085914,-0.07153,0.017842,0.42281,-0.12074,-0.034463,-0.34652,-0.25177,-0.3504,0.31887,0.20585,-0.10883,-0.593,-0.27298,0.30888,-0.076511,0.021708,-0.55106,0.36811,-0.086076,0.0057928,0.19256,0.73171,-0.26114,-0.086465,-0.066147,0.10435,0.42924,0.095794,0.37313,-0.3354,-0.12679,0.43119,-0.31481,0.44091,-0.015168,0.089667,-0.0092609,-0.42068,0.086175,-0.018581,-0.20917
oak_tree,-0.34194,0.080999,0.061988,0.77642,0.18202,0.35927,0.24569,-0.35284,0.61533,0.32476,0.068187,0.28212,0.11532,-0.15116,0.10343,-0.19732,-0.41965,0.088651,-0.12163,-0.004932,-0.084107,0.059418,-0.20093,-0.0011085,-0.31557,-0.092964,0.14154,-0.42149,-0.16716,0.17484,-0.603,0.27709,-0.56586,-0.044444,0.15101,-0.11862,-0.32366,-0.10394,-0.0063155,-0.19284,0.26322,-0.093297,-0.33019,0.48127,0.12547,0.079056,-0.23551,-0.063097,-0.13854,0.0046096,-0.011918,-0.14983,-0.34591,0.036412,-0.08558,0.15476,-0.36385,0.34608,0.0071347,0.53666,-0.33255,-0.15985,0.52539,0.15313,-0.25888,-0.037892,-0.1682,-0.26794,0.24916,0.45951,0.23318,-0.34299,0.23958,-0.49992,0.044824,0.14962,0.36484,0.12457,-0.14873,-0.12929,-0.12767,0.28548,-0.074105,-0.12259,-0.6327,-0.18801,0.34637,0.059556,0.087012,0.96614,0.037988,-0.24119,0.041101,-0.094637,0.24352,0.41088,-0.02519,0.44357,-0.33604,-0.37961,-0.27557,-0.47594,-0.27839,0.17961,0.13261,0.098183,-0.07059,0.47035,0.67493,0.16168,0.53926,0.019992,-0.067193,-0.40195,0.035517,-0.30722,0.067461,0.28496,-0.30266,-0.089877,0.39937,0.34103,0.20676,0.26216,-0.08229,0.083708,-0.24087,0.51207,-0.12461,0.075378,-0.25605,0.53204,0.11675,-0.046334,0.18638,-0.11924,-0.12308,-0.29689,-0.61771,-0.17934,0.4177,0.054669,-0.065036,0.24017,0.23159,0.14491,0.066911,0.5326,-0.27036,-0.049189,0.4665,-0.81232,-0.43278,0.56241,-0.075801,0.039723,0.14598,-0.26478,0.095712,0.024624,0.29071,0.4789,-0.89942,-0.53314,0.11627,-0.25054,0.24962,0.11308,-0.020372,-0.28887,-0.5298,-0.40583,-0.30293,0.085481,-0.27834,0.083708,-0.37434,-0.12049,-0.15771,-0.4721,-0.0014358,0.51102,0.0035697,-0.17624,0.27426,0.34124,-0.18323,0.30451,0.12674,0.1759,0.0456,0.08938,0.14643,0.027261,-0.12757,0.26877,-0.079983,0.01725,-0.18,0.063537,0.11541,-0.053509,0.3101,-0.28362,-0.17521,-0.22716,-0.26724,-0.54057,0.12818,0.28226,0.29784,0.05675,-0.20059,0.42256,0.08886,-0.036991,-0.013325,-0.26903,0.28505,-0.027631,0.14033,0.1243,-0.40907,0.90857,0.1531,-0.035283,-0.013279,0.22983,0.062469,-0.55598,0.022053,0.033016,-0.070219,0.099974,0.043543,-0.71198,-0.4558,-0.32992,-0.26008,0.12341,-0.11392,-0.37008,-0.162,-0.24699,0.0733,-0.26898,-0.27634,-0.31764,0.10573,-0.36848,0.30814,-0.20224,0.29497,-0.29756,0.049401,0.0021244,0.058543,-0.26981,-0.29331,-0.19843,0.3922,0.32893,0.25839,0.048148,0.22642,0.28922,-0.4634,0.29127,0.14035,0.41499,-0.23825,-0.048667,-0.15476,0.0667,0.037836,-0.6158,0.22602,0.39757,-0.02237,0.14686,0.19131,-0.25996,-0.49219,-0.18387,0.2362,0.37136,-0.23065,0.18893,-0.44612,-0.47739,0.13137,-0.3792,0.19679,0.31233,0.076623,-0.25894,-0.16366,0.27783,0.63635,-0.39865
plain,-0.21254,-0.042542,0.067397,0.55769,0.21153,0.10558,0.1413,0.062636,0.36656,-0.13594,-0.079486,0.22844,0.082715,-0.13247,0.18205,-0.58514,-0.45136,-0.31214,0.11978,0.0286,-0.32262,-0.011305,-0.11515,0.36498,0.2635,0.077005,0.64957,-0.19458,-0.050409,-0.048746,-0.084073,0.41466,-0.38208,0.42866,0.25122,-0.24753,0.077259,-0.065671,0.012083,-0.23678,0.12016,0.36559,-0.23551,0.05506,0.15586,0.22413,0.22243,-0.18007,0.11904,0.032685,0.14762,-0.077823,0.024003,-0.52487,-0.22611,0.28861,-0.096837,0.14766,-0.054348,0.43997,-0.1716,0.35457,-0.13561,-0.26129,-0.2344,-0.35801,-0.24618,0.066554,-0.1526,0.034704,-0.19463,-0.12128,0.21389,-0.19981,-0.0374,0.024631,-0.29291,-0.007738,0.027141,-0.35131,-0.27281,-0.36498,0.11386,-0.14286,-0.29882,0.39798,-0.4178,0.095269,-0.01991,0.17475,-0.29406,-0.22903,0.22105,-0.16361,0.032066,0.0072625,0.28503,0.061261,-0.15635,-0.16658,-0.20054,-0.05574,-0.12154,0.33801,0.10352,-0.055835,0.0032486,-0.17821,-0.19768,-0.13965,-0.11766,0.40741,-0.039677,0.16806,-0.40334,-0.23541,0.21755,0.012734,0.15729,-0.053227,0.71301,0.23582,0.075049,0.5721,0.31988,0.097537,0.20562,-0.19695,0.132,0.49373,0.17721,0.01825,0.21089,-0.2307,0.31055,0.013575,0.056366,0.11242,0.11654,0.18392,0.30539,0.28719,0.12274,0.0013574,0.060688,0.10931,-0.35797,-0.1044,-0.28879,0.2639,0.18366,0.018787,-0.39491,-0.24778,0.25405,-0.24805,0.24322,0.085153,0.22461,-0.27686,-0.035128,0.47497,-0.23375,-0.018892,0.19765,-0.090415,-0.24455,-0.37326,0.48784,-0.014985,-0.40638,-0.32951,-0.1344,-0.12303,-0.31049,0.36592,0.031833,0.32986,0.53114,-0.40599,0.31381,0.062229,0.48099,0.11973,0.10619,0.24836,-0.59243,-0.0097144,0.0042715,0.26354,0.31047,-0.25411,0.099826,0.037698,0.072665,0.082862,0.037226,0.19137,-0.31786,-0.011412,0.052074,-0.32339,0.14054,-0.31888,0.14146,0.11482,0.13423,-0.06874,0.23797,0.066265,0.033137,0.00022355,-0.074539,-0.10056,0.010013,0.2901,-0.18939,0.0069515,-0.35941,0.088513,-0.021952,-0.10885,-0.092475,0.084321,0.3803,-0.34338,-0.27953,0.23976,0.36051,-0.20452,-0.30133,0.11002,-0.55544,-0.27727,-0.050187,-0.074026,-0.038681,-0.036287,-0.14017,-0.017356,-0.36129,0.0034913,0.26623,-0.023362,0.088096,-0.059706,0.17622,0.34757,-0.028144,-0.082883,0.26312,0.14483,-0.057859,-0.078999,0.064612,0.06131,0.2551,-0.21644,0.1865,0.30542,-0.3511,-0.40693,0.044612,0.15907,-0.39379,-0.31287,-0.0024247,-0.032558,0.12252,0.19377,-0.2387,0.22562,0.18082,0.085174,-0.0021653,0.25782,0.11109,0.27219,-0.090145,0.39531,0.19252,-0.11033,0.014693,0.006813,-0.086936,-0.46518,0.40257,0.30012,-0.0041206,-0.0066052,0.15453,0.089479,-0.060165,0.21236,-0.052549,-0.20201,0.067777,0.10815,-0.076253,0.086346
plate,-0.4303,0.70009,0.48642,0.41607,-0.44639,0.51145,0.21878,-0.077603,0.008819,0.16626,0.31373,0.22159,-0.20363,0.13247,0.18547,-0.25869,-0.53942,-0.15458,-0.14007,0.50969,-0.028386,-0.17229,0.19941,-0.038793,-0.12711,0.029405,-0.0042879,-0.12185,-0.052442,0.23322,3.57E-05,0.1289,-0.13091,0.19046,-0.4998,0.16917,-0.35647,-0.29107,0.075383,-0.047413,0.40139,-0.26297,-0.33715,-0.30623,0.16754,0.013339,-0.25992,0.093457,0.13718,0.11355,-0.0028431,-0.23338,-0.47023,0.47046,0.11487,-0.041533,-0.14663,0.64271,-0.15608,0.097557,-0.41028,-0.25251,-0.06291,-0.23683,-0.40039,-0.35057,-0.26413,-0.085761,0.30343,-0.56879,-0.033845,-0.52004,0.21053,-0.43591,-0.038056,-0.43947,-0.040555,-0.22398,-0.28966,-0.17665,0.23469,0.15938,-0.49769,-0.071624,0.1005,0.13287,0.043117,-0.066526,0.25611,0.21496,-0.46875,-0.38147,0.15811,0.055354,-0.093553,-0.097445,-0.32785,-0.37323,-0.53618,-0.39562,-0.48313,-0.04061,-0.014839,0.10521,0.58405,-0.18614,-0.16386,-0.088671,-0.16945,0.28249,-0.13661,0.009617,0.13839,-0.11294,0.4572,-0.24279,0.29415,0.20104,0.030035,0.32781,0.35551,-0.27279,-0.0085911,0.27521,0.33363,0.66105,-0.18169,0.17571,0.64716,0.33019,0.027548,-0.08027,-0.18369,0.31544,-0.27952,0.030518,-0.25646,0.060506,-0.24671,0.40068,0.054222,0.16736,0.64945,0.22748,-0.21612,0.20544,-0.064264,0.12681,-0.0054488,0.18927,0.06497,0.18574,-0.24076,0.0093095,0.061573,-0.093371,0.20922,-0.18241,0.096335,-0.2715,-0.25998,0.078569,-0.32198,0.25879,0.41538,-0.23911,-0.24811,-0.2974,0.074431,0.31429,-0.47429,-0.14475,-0.19646,-0.13723,0.10817,0.23882,0.0041101,0.17614,0.28893,0.26325,-0.13092,-0.38584,0.12323,-0.22273,0.2021,0.31812,0.12192,0.27657,0.10989,0.24416,0.11957,0.30954,0.13619,-0.011876,-0.516,-0.22696,-0.23827,0.32049,-0.073676,-0.12287,0.29907,0.1407,0.05915,-0.040364,0.12244,-0.16473,0.27474,-0.089853,0.16142,-0.057412,0.47016,0.31304,0.4288,-0.0095713,0.076024,0.20892,-0.42977,-0.37093,0.045191,-0.22403,-0.27304,0.19327,0.021044,0.16048,-0.049778,0.047714,-0.45519,-0.038808,-0.0086529,-0.31291,-0.65426,-0.038157,-0.25187,-0.10227,0.015749,-0.0033787,-0.065794,0.20048,-0.17605,-0.30011,-0.32903,-0.07215,0.29196,0.27926,-0.26525,0.44419,0.1134,0.19309,0.081323,-0.02256,-0.041729,-0.3104,0.40295,0.17223,-0.11704,0.10853,0.039291,-0.48308,-0.345,0.20632,-0.50229,0.16133,0.65568,0.25671,-0.49891,-0.539,-0.65126,0.33975,0.22628,0.074035,-0.28669,-0.078277,0.159,0.13258,0.063821,-0.41031,0.0097833,0.32859,0.37966,-0.016333,0.19962,-0.041403,0.098839,-0.093067,0.28326,-0.57973,0.094144,0.10838,0.024984,0.43004,-0.12023,-0.044837,0.26263,0.1869,-0.47918,-0.59182,-0.022372,0.43947,-0.16625,-0.082677
wolf,-0.28806,0.13842,-0.067644,0.084165,-0.181,0.10396,0.01484,0.10818,0.15318,0.19233,0.42678,0.26868,0.17022,-0.39605,-0.16194,-0.18585,0.12274,0.1275,-0.21274,0.07112,-0.31397,0.22241,-0.43758,-0.48622,-0.17508,-0.23605,-0.01435,0.24345,-0.028191,-0.10241,0.21216,0.51813,-0.075304,-0.23155,0.27711,-0.086174,-0.29091,0.02902,0.24833,-0.00040272,-0.30105,-0.10803,-0.19637,0.40924,0.080888,-0.10681,0.0087074,-0.010819,0.32388,0.019752,0.15409,-0.062832,-0.13809,0.14554,-0.016456,0.16834,0.19333,0.20709,-0.042617,0.61467,-0.1316,-0.34762,0.06295,0.12785,-0.28967,0.075363,0.41614,0.25365,-0.15397,0.19144,0.54196,-0.21617,0.055764,-0.24401,-0.38873,0.15863,0.29542,0.21592,-0.0026865,-0.22708,0.018559,-0.19975,0.0098371,0.12305,-0.0028449,0.25554,-0.30781,-0.13945,0.31873,0.40477,-0.091262,-0.24433,0.21077,-0.045537,-0.17015,0.14804,0.094044,0.22191,0.04383,-0.018282,-0.25406,0.15494,-0.27411,-0.11752,-0.11855,-0.056846,0.15774,-0.025929,-0.11143,-0.083877,-0.026816,0.11863,-0.22583,-0.60537,-0.11304,0.051673,0.028793,0.052315,-0.14293,-0.046593,-0.083589,0.24565,-0.054949,0.27161,-0.031865,0.55824,-0.46255,0.38799,-0.13569,0.2694,-0.18675,0.38854,-0.16482,0.13331,0.23005,-0.023356,0.16616,-0.092136,-0.71336,0.33306,-0.15543,0.055691,-0.016357,0.35759,0.032663,0.38337,-0.27137,0.29004,0.18179,0.24057,0.14178,-0.32857,-0.30735,-0.3291,-0.6171,0.19918,-0.12746,0.040204,-0.16078,0.004469,-0.039365,0.25099,-0.46346,-0.041037,0.066506,-0.23523,0.16582,0.36454,0.0061395,-0.027948,-0.3804,-0.35027,-0.38388,-0.027846,-0.020533,0.080901,-0.018125,0.18392,0.26119,-0.25059,-0.45173,-0.27042,0.52286,-0.26344,-0.29458,-0.0035922,0.23728,0.24989,-0.24547,0.31816,-0.065351,-0.71069,-0.066153,-0.027927,-0.4661,-0.026757,-0.21717,-0.13599,-0.31874,-0.61976,0.31813,0.20335,-0.13052,0.3437,0.074781,-0.40964,-0.22279,-0.55093,-0.16727,-0.072763,0.37423,0.064356,-0.033378,-0.054534,0.20735,-0.14343,0.17422,0.017798,-0.16794,-0.1063,-0.44315,-0.1646,-0.019842,0.26506,-0.21892,-0.17768,-0.18874,0.18905,0.073491,0.32738,0.38192,0.17514,0.26152,-0.046921,0.14463,-0.23085,-0.2513,0.14409,0.20707,0.17107,-0.021515,0.15314,0.0643,0.09159,0.29759,-0.22645,-0.031902,-0.041799,-0.31914,0.14366,-0.1076,-0.0069011,-0.18264,0.42254,-0.10878,0.066256,0.061243,-0.049068,-0.22175,-0.075358,0.095774,0.57643,0.27187,0.065064,-0.29254,-0.086034,0.14544,-0.19705,-0.069245,-0.32609,-0.30048,0.11866,-0.02212,0.0044778,-0.063247,-0.42606,0.16219,-0.03955,0.13418,0.24304,0.30618,-0.27817,0.12352,0.6247,0.3576,-0.15218,0.20427,0.19323,-0.64343,-0.25153,0.16898,-0.26679,0.53834,-0.11766,0.091774,0.10545,0.025614,0.24203,-0.040969,0.076483
clock,0.048666,-0.027515,0.019851,-0.38152,-0.37823,0.09023,-0.28885,-0.13898,0.068021,0.027871,-0.025517,-0.25581,-0.1375,0.24156,0.35918,-0.1024,0.52814,-0.25696,0.14288,0.41076,-0.42858,-0.077724,-0.61195,-0.27727,-0.16925,-0.16393,-0.53989,0.25864,0.14498,0.10053,0.095382,0.12326,-0.23061,0.087295,-0.40381,0.12795,0.30152,0.18965,0.13686,0.6193,0.17267,0.088124,-0.035402,0.29991,0.12872,-0.14669,0.16957,0.1334,0.19541,-0.039926,-0.15856,-0.093057,-0.25743,-0.24216,-0.16658,0.45904,-0.49022,0.24633,0.0041577,-0.097565,0.089433,-0.14584,0.078177,0.092791,-0.064415,-0.26553,0.45923,-0.22662,0.32819,0.33353,0.25012,-0.076556,0.17832,0.14718,-0.25932,-0.072133,0.43065,0.3875,-0.027354,-0.091805,0.62393,-0.10469,-0.11283,-0.16221,-0.058063,0.092495,-0.093533,0.022343,0.28578,-0.32249,-0.1894,0.10199,0.29694,-0.1589,-0.066104,0.1161,0.50144,-0.32537,-0.42248,0.19532,0.10789,0.15186,0.035552,0.13648,0.091264,-0.35618,-0.31508,0.091353,-0.080733,0.051074,0.082588,-0.12258,0.12297,-0.22426,-0.032227,-0.14973,0.51404,-0.13482,-0.22624,-0.20303,0.049139,0.20814,-0.079482,0.15322,-0.02314,-0.089095,0.15298,0.49587,0.31868,0.54021,0.025952,0.15689,-0.080308,-0.0030231,0.17597,-0.10868,0.13876,0.065599,0.11174,0.76669,-0.024843,-0.12118,0.24512,-0.020155,0.12465,0.29746,-0.11107,-0.89271,-0.41203,-0.18826,0.047601,-0.257,-0.38034,-0.2642,0.17591,-0.41221,0.27671,0.014608,-0.0787,-0.4572,0.2133,-0.1347,0.17778,-0.014803,-0.071078,0.093049,-0.41253,-0.013348,0.046441,-0.37744,-0.33365,-0.24571,0.0036005,-0.12152,0.027526,-0.060727,-0.19826,-0.28706,0.17448,-0.42785,0.19207,0.072917,0.031698,0.024077,-0.31673,-0.15824,-0.09883,-0.30228,0.26381,-0.15666,-0.081064,0.065389,0.19767,0.28716,-0.22552,-0.075557,-0.013376,0.21875,-0.088576,-0.357,0.15416,-0.065111,-0.13683,-0.10678,0.36528,-0.30136,-0.11477,-0.0017196,0.089833,-0.37896,0.62996,-0.10388,0.091874,-0.17773,-0.11828,-0.32382,0.0071341,-0.42619,-0.27884,-0.066185,0.13487,0.076289,-0.19745,0.16674,-0.068671,-0.27385,-0.1344,-0.24579,-0.54332,-0.2313,-0.1017,-0.19783,-0.21188,-0.2397,-0.12758,-0.34225,-0.0023336,0.11062,-0.030666,-0.19806,-0.23825,-0.11366,-0.063764,-0.47863,-0.090177,0.069339,0.48816,-0.32382,0.57342,0.19982,-0.046306,0.062678,0.15555,-0.17659,0.085529,0.1493,0.35409,-0.021789,0.066132,-0.2885,0.20659,0.033796,-0.0083922,-0.032589,-0.012051,-0.12404,-0.21281,-0.046695,0.058995,-0.059106,-0.53794,0.10181,0.10255,0.15043,-0.31126,-0.54663,0.3391,0.5057,0.06697,0.19349,0.20587,0.043583,0.17125,0.21743,0.23598,0.10646,0.54189,0.3367,-0.073153,0.47379,-0.16007,-0.36328,0.24444,0.33828,0.055476,-0.11373,-0.46809,-0.089643,0.26698,0.53014
spider,-0.1064,0.090816,-0.12362,0.27849,-0.40032,-0.21136,0.28377,0.022343,0.069089,0.38926,0.15505,0.77505,0.16327,0.082711,0.037017,-0.53811,-0.39287,0.012581,0.28371,0.52675,-0.57799,-0.07663,-0.044431,-0.35395,-0.26877,-0.37775,-0.079367,0.1742,0.28593,-0.55076,0.097784,0.74555,-0.1087,-0.025367,0.080195,-0.0087983,0.37023,-0.25618,0.34807,-0.06257,-0.21396,-0.59774,-0.14101,0.28234,0.086726,-0.16615,-0.46604,-0.41572,0.43376,-0.038809,-0.64424,0.1143,0.23323,-0.049313,-0.047631,0.33686,0.57321,-0.60468,-0.034755,0.60601,0.1781,0.040393,0.40212,0.5166,-0.19241,-0.12929,0.019342,0.26707,0.28773,0.19543,0.045187,-0.0090682,0.25908,-0.25834,-0.35973,0.50592,0.14109,0.1252,-0.23359,0.36572,-0.051807,-0.27876,0.26597,0.27788,-0.22346,0.43595,0.3381,0.047016,-0.054475,-0.43108,0.088918,0.058984,-0.14745,0.14634,-0.17146,0.014255,-0.041499,-0.33852,0.13503,-0.20001,0.17002,-0.14374,-0.344,-0.45996,0.37798,-0.17545,-0.25837,0.014391,0.13162,-0.067844,0.052985,0.36458,0.099532,-0.43602,-0.11216,-0.16865,0.38122,0.29978,0.12992,0.13549,0.12372,-0.042069,-0.0061443,0.60296,0.47362,0.28011,-0.27634,0.35038,0.2845,0.47819,-0.18718,0.40204,0.022389,0.24195,-0.21301,0.0093195,-0.19534,0.10665,-0.16246,0.074687,0.25065,0.19528,0.058112,-0.31412,-0.34854,0.36735,0.044623,-0.093628,0.12161,0.21135,0.4413,-0.55504,-0.22408,0.23489,-0.38166,-0.12987,-0.2823,-0.49626,-0.10422,-0.18101,0.031411,-0.31915,-0.098279,-0.061764,-0.19919,0.23759,-0.22255,0.079415,0.49133,0.012011,-0.010572,0.29751,0.031944,-0.11134,0.20742,-0.16867,0.34715,0.0035617,0.3979,-0.40484,-0.54061,-0.41801,0.13057,-0.24698,-0.31336,-0.5301,-0.47723,0.33601,0.1771,-0.045054,-0.31839,-0.59248,0.40327,0.5415,-0.066849,0.22856,-0.33208,0.016776,0.1281,-0.044986,0.41676,0.34424,0.14,-0.052105,0.28362,-0.43112,-0.40516,-0.077995,0.12764,-0.21924,0.47812,-0.15755,-0.019163,-0.38135,0.56812,0.29594,0.42121,0.17181,-0.10182,0.38968,-0.32721,0.039018,-0.093351,0.6126,-0.17582,0.065358,-0.30757,0.061575,-0.12618,0.2514,0.16274,0.28368,-0.75983,-0.10767,-0.069875,0.08246,-0.28684,-0.080646,-0.37182,0.13306,0.23327,0.20816,0.0097496,0.47117,0.58157,0.27635,0.22543,0.089044,-0.26716,0.28064,-0.63709,0.0057267,-0.34492,-0.29417,0.22527,0.028179,0.16421,-0.47203,0.50828,0.23292,-0.24582,0.32536,0.25574,-0.33486,-0.32599,-0.14633,-0.12949,0.30483,0.30858,-0.40204,-0.22278,0.02721,0.25191,-0.051969,-0.38133,-0.2685,0.19718,-0.089506,-0.18584,-0.22188,0.71964,0.030369,0.2036,-0.46219,0.20406,0.31437,0.26001,0.092029,-0.30444,0.10062,-0.42962,-0.51069,0.15882,0.11783,0.036856,-0.036745,-0.3176,0.06211,0.020379,0.19611
bed,0.10773,0.078835,-0.46053,0.38998,-0.099718,-0.056339,0.14538,0.1817,-0.068497,0.22746,0.24653,0.19958,-0.0041166,0.19647,-0.067097,-0.44138,-0.12404,-0.13333,-0.37004,0.35775,0.12192,0.058367,-0.21093,-0.16852,0.030534,-0.11551,-0.14711,-0.05782,-0.08325,0.26112,0.22992,0.45754,-0.19675,-0.19314,-0.13923,-0.25078,0.069645,-0.30065,-0.12734,-0.26983,0.41919,-0.091362,-0.23541,-0.12889,0.047421,0.14745,-0.1915,-0.43009,0.31884,0.27203,-0.14925,-0.16926,-0.044382,-0.19216,0.13594,-0.006394,0.02846,0.30784,0.1176,0.51291,0.12319,-0.067169,0.18711,-0.21625,-0.26337,0.082283,-0.42443,0.016873,0.27797,0.039911,-0.16979,0.075937,0.3473,-0.44384,0.036978,0.18528,0.25166,0.069119,-0.14765,0.11995,0.099558,-0.57146,-0.13841,-0.19925,-0.31673,0.1507,-0.12661,-0.074907,-0.0776,-0.13425,0.14336,-0.067443,0.26732,0.093777,-0.00056092,0.31846,-0.03561,-0.17622,-0.38683,0.13324,-0.12176,0.098972,0.22091,0.058732,0.13028,-0.14859,-0.35649,0.1822,-0.19824,-0.10256,-0.041935,-0.20509,-0.17039,0.11486,-0.071207,-0.41662,-0.37828,-0.23434,-0.25858,0.52128,0.51951,0.30986,-0.12822,0.13466,0.15413,0.034698,0.40698,-0.17728,0.093285,0.17239,0.27973,-0.099109,-0.069634,0.34846,0.53421,0.05158,0.014447,0.3302,0.0020113,0.26822,0.033756,0.28112,-0.02885,0.043612,0.47554,-0.015356,-0.13805,-0.29854,-0.12091,0.27753,0.14489,0.035563,-0.35283,-0.17452,0.09038,0.15661,0.10035,-0.49937,0.15024,-0.32786,0.052707,0.20078,-0.45348,-0.018243,-0.31718,0.24455,-0.094771,-0.19427,0.079646,0.2723,-0.1408,-0.23895,0.089555,-0.060948,-0.21938,0.099388,0.043659,0.0092413,-0.087098,-0.21864,0.020951,-0.40177,-0.17412,-0.2572,-0.25113,0.24193,-0.0032363,0.24006,0.2346,0.026256,0.095119,-0.050908,0.31444,0.30867,-0.033729,-0.001565,-0.1158,-0.38394,-0.27096,-0.23386,0.070556,0.1012,0.063056,0.011819,0.00052659,-0.44267,-0.41771,-0.45043,-0.0047111,-0.11116,0.82793,0.24438,-0.17194,-0.014622,0.13049,0.13222,-0.2874,-0.23862,0.22486,0.23138,0.099314,0.21753,0.41318,0.19866,0.10112,-0.28975,-0.5808,0.018014,-0.046197,-0.11141,-0.0025034,-0.12784,-0.12432,0.20536,0.13384,-0.16736,-0.082229,0.19174,-0.14124,-0.24663,-0.073228,-0.10486,-0.02797,-0.072947,-0.12562,0.4438,-0.16888,-0.19288,-0.31499,-0.22996,0.38119,0.023215,-0.068472,0.082536,-0.34666,-0.12659,-0.15891,-0.14776,0.011585,0.0060105,-0.029486,0.23886,-0.21694,-0.27355,0.072668,0.16548,-0.43652,0.23049,0.15626,0.060463,0.0568,-0.075808,0.35779,0.22007,0.012158,-0.1477,0.47839,0.2395,-0.08944,0.08886,0.036903,0.13802,0.074515,-0.2172,0.051877,0.25412,-0.20566,-0.11652,-0.11389,0.19842,-0.060875,-0.12362,-0.089943,-0.14168,-0.27511,0.0007359,0.11922,0.13438,0.37232,0.18001
tiger,-0.30124,0.072696,-0.43993,0.31723,-0.23821,0.43036,0.0049092,-0.16542,0.19755,0.12545,-0.018786,0.15874,-0.065031,-0.35151,0.25626,-0.097044,-0.4186,0.028568,0.54731,0.25903,0.20704,0.35166,-0.35711,-0.21881,0.23807,0.13631,-0.071192,0.3052,0.12722,0.06602,0.35842,0.36348,-0.45632,0.14008,0.11727,0.019091,0.26809,0.22029,0.42748,-0.049402,-0.37517,-0.19808,0.18311,0.37295,0.22058,-0.037805,-0.25304,-0.14578,0.14662,0.039934,-0.34717,0.1906,0.41691,0.15591,0.12251,0.36872,-0.040588,0.18136,0.040318,0.25366,0.20165,-0.17449,-0.27859,0.18725,-0.14567,0.021094,0.55417,0.13884,-0.23292,0.1653,-0.19154,-0.21773,-0.21496,-0.20554,-0.27512,-0.21329,0.51166,0.26181,-0.21818,0.26462,0.2482,0.14423,-0.41649,-0.05352,-0.10243,-0.060719,-0.43561,0.18134,0.18075,-0.2633,-0.035038,-0.29575,0.14652,0.39221,0.14237,0.39965,-0.30264,-0.038317,0.051821,0.30838,-0.11192,0.47294,-0.1003,0.45356,-0.27492,-0.093721,-0.004662,0.59351,0.23471,-0.095056,0.067571,-0.14642,-0.32385,-0.47639,-0.083941,-0.13721,0.40484,0.21132,0.1852,-0.23365,0.27563,-0.10914,-0.044224,0.39,0.19422,0.10691,-0.40067,0.35761,0.29431,-0.16419,-0.60465,0.1249,-0.056457,-0.01163,-0.098942,-0.087384,0.25647,-0.015733,-0.17284,0.073113,0.022321,0.12816,0.32519,0.32287,0.42934,0.4909,0.047873,0.11589,0.36581,0.36281,-0.01036,-0.0015795,-0.26392,-0.24769,0.081245,0.4744,0.14233,-0.0043241,-0.016007,0.066981,0.56885,-0.25657,-0.031286,0.11003,-0.065681,-0.19198,0.04956,0.47024,0.4906,0.092899,-0.19883,-0.23832,-0.17057,0.20251,0.06439,0.11688,0.032409,-0.16898,0.049446,-0.12656,0.082828,0.11539,0.22188,-0.51869,-0.11602,0.056087,-0.057967,0.098983,-0.085998,0.5913,0.16665,-0.5555,0.3314,0.3505,0.0058634,-0.11718,-0.1016,0.2835,-0.45146,-0.13937,0.28848,-0.067575,0.13707,-0.016638,0.09923,-0.40086,-0.14895,-0.21423,0.41745,-0.1704,0.22034,0.37877,-0.46229,-0.44677,0.023643,0.059373,0.53646,-0.013057,0.48533,-0.32917,-0.23966,0.36798,-0.067072,0.32688,-0.16112,0.063756,-0.35071,0.11578,0.016634,0.066315,0.075666,0.15993,0.061212,-0.19191,0.25979,0.19357,-0.026813,-0.17685,-0.036013,0.31845,-0.078947,0.20435,-0.090021,0.19973,-0.019977,0.039231,-0.18424,-0.062064,0.26845,0.38378,0.062934,-0.20977,0.11442,0.039603,0.15982,-0.037111,-0.2202,-0.16959,0.45452,-0.3489,0.067956,0.30552,0.12432,-0.32688,-0.55753,-0.51511,0.25348,0.16026,0.059153,-0.028001,-0.46208,0.051398,0.29659,-0.22113,-0.349,-0.47534,0.3695,-0.010032,0.097617,-0.16252,0.54395,-0.111,-0.24466,-0.079352,0.50846,0.14793,-0.21808,0.47847,-0.56557,-0.2152,-0.25436,-0.088979,0.063296,0.095659,0.12924,-0.14661,-0.069387,0.32306,-0.14198,-0.15831
rocket,-0.079415,-0.20763,-0.10156,0.45713,-0.25766,-0.38105,-0.28483,-0.24731,-0.52866,0.30965,0.097713,0.04757,-0.049198,-0.18235,-0.14402,0.33148,0.071933,0.10293,-0.27898,0.19514,0.23475,-0.25768,-0.18357,-0.19915,-0.67846,-0.086275,0.042064,0.23733,-0.10502,0.32716,-0.19688,0.26449,-0.16876,0.080044,-0.37823,0.27693,0.38252,-0.25937,0.11433,-0.22339,-0.1014,-0.0088969,-0.44997,0.030841,0.11646,-0.084846,-0.11643,0.063297,0.6189,0.23231,0.24671,0.074069,0.20006,0.069588,-0.3526,0.18411,0.36465,-0.039303,0.083861,-0.14772,0.0042,-0.15837,0.21724,0.073149,0.085797,-0.20739,-0.25879,0.3493,-0.49068,-0.03013,0.19361,0.093159,0.0906,-0.12402,-0.04153,0.44049,-0.0028053,0.26952,-0.38509,-0.16138,0.089268,0.16253,-0.47344,0.090881,-0.25362,0.27824,-0.042226,0.50202,0.48384,-0.10593,0.0037756,-0.066939,-0.14305,0.33305,0.3075,-0.068553,0.39277,-0.073187,-0.19492,-0.21351,0.0033829,-0.29993,-0.21135,-0.086984,-0.064408,0.014039,-0.30608,0.091856,0.13878,-0.56753,0.18298,-0.069193,-0.17273,-0.34841,-0.65475,0.092422,0.48563,0.35342,-0.33201,0.12909,0.33636,-0.1843,-0.25407,0.21772,-0.0082552,-0.35027,-0.12794,0.19477,0.17899,0.27275,0.22997,0.41273,0.13522,0.38966,0.15937,0.3267,0.064917,-0.21246,0.053175,-0.12432,0.010082,0.32854,0.38506,-0.2323,-0.05373,-0.13434,-0.056751,-0.17387,-0.25112,0.12249,0.26073,0.0084272,-0.33955,-0.35617,0.033391,-0.0090749,0.40961,-0.33033,0.017701,-0.086103,0.028179,-0.24529,-0.17739,0.31681,0.074656,0.34157,0.017492,0.086817,-0.22109,0.028892,-0.54926,0.016989,0.20034,-0.9,0.16677,0.20622,0.036116,-0.45798,0.070669,-0.11999,-0.45415,0.31104,0.066206,-0.11162,0.11226,0.32407,-0.030776,0.01993,0.40611,-0.39664,0.039418,-0.24963,0.050502,-0.0062608,-0.3305,-0.30587,-0.45165,0.063376,-0.066493,-0.55546,0.10265,0.43895,0.20953,0.23064,0.12608,-0.23594,-0.1875,-0.2231,0.36759,0.13047,0.80078,0.4267,-0.093416,0.25816,-0.27872,-0.071246,0.13524,-0.67959,-0.091764,0.045093,-0.37755,0.1129,-0.70474,0.064915,-0.24392,-0.33562,-0.2923,0.31976,0.018541,0.24543,0.26521,0.1788,-0.095389,-0.033324,-0.081675,0.17223,-0.24788,-0.452,-0.15913,0.33589,0.11857,0.17747,0.25333,0.12334,-0.31597,-0.18406,0.34699,-0.40377,0.052694,0.10188,-0.085399,-0.23314,-0.70067,-0.19899,0.088081,0.020263,0.18308,-0.11786,-0.042328,0.1347,-0.047278,0.024712,0.034842,-0.095774,-0.42873,-0.049924,0.19662,-0.39658,0.41784,-0.52206,-0.30172,-0.52408,-0.24754,0.28796,-0.41841,0.033859,-0.10653,0.57726,0.12557,0.26008,0.3739,-0.53774,-0.15259,-0.43886,0.091741,0.15163,0.10769,-0.34205,-0.53421,0.075509,0.15907,0.12875,-0.39834,-0.15118,-0.11672,-0.094855,-0.081983,0.40947,0.15183,0.152
pickup_truck,-0.049757,-0.24887,0.077345,0.38045,-0.50517,-0.2074,-0.018878,-0.58745,-0.070497,0.073769,-0.058383,0.53633,0.07857,-0.2499,0.12021,0.13484,-0.12637,0.1042,-0.13637,0.3953,-0.021742,-0.35511,-0.29217,-0.29293,0.045441,0.10944,-0.23211,0.041861,-0.19065,0.10274,0.074635,0.081039,-0.33269,0.05993,-0.1194,0.22063,-0.13308,-0.52331,0.2287,0.087301,-0.18813,-0.042058,-0.10563,0.17904,0.24768,0.59024,0.14117,-0.078954,0.3937,-0.19866,0.22361,0.0049172,-0.076363,0.12847,-0.12437,0.20347,0.63524,0.3165,0.38674,0.40913,0.12029,-0.050814,0.28245,-0.079965,-0.15976,-0.084161,-0.25954,0.19807,0.015505,-0.006236,-0.10624,0.18192,0.070804,0.05011,-0.31899,0.016246,-0.29543,0.083941,-0.36993,0.21921,-0.10567,0.070731,-0.47102,-0.3328,-0.28558,0.013836,-0.1192,0.33812,0.49952,-0.0093303,-0.203,-0.20039,-0.045927,0.22161,0.058739,0.13736,-0.16971,-0.13759,-0.25247,-0.22757,-0.20277,-0.17144,0.051103,-0.27242,0.35863,0.034372,-0.25439,0.22678,-0.25319,0.22913,-0.12924,-0.18284,-0.47805,0.013925,0.35905,0.066837,0.5969,0.12941,-0.58937,0.049686,0.26065,0.24783,0.17265,0.1286,0.14817,-0.24263,0.1336,-0.077119,0.3114,0.1141,0.37255,0.28678,-0.21294,0.38344,-0.24641,0.5283,-0.033974,-0.038961,-0.26746,0.25445,0.06678,0.15726,0.12791,-0.16152,-0.17722,0.23144,-0.058557,-0.21823,-0.083968,0.068288,-0.048156,-0.10135,-0.236,-0.3603,0.13574,0.35598,0.11672,-0.60845,-0.10507,-0.3546,-0.19809,-0.18375,-0.40313,0.3481,0.21826,-0.13221,-0.33142,0.025478,-0.023577,-0.064143,-0.085196,0.05184,-0.26225,-0.42685,-0.36532,0.52123,0.2744,-0.10408,0.1695,-0.23876,0.0029722,-0.14323,-0.13959,-0.17781,-0.13508,-0.23915,0.063792,-0.13662,0.055089,0.19625,0.17312,-0.16882,0.08838,0.20304,-0.014407,-0.16709,0.027471,-0.17311,-0.31029,-0.14934,-0.083892,0.364,0.24984,-0.4923,-0.31941,-0.31442,-0.37678,0.029666,0.57033,-0.0017087,0.46659,0.10515,-0.31353,0.2041,-0.55054,-0.2174,-0.50803,-0.39371,0.056511,0.37616,-0.18261,-0.038581,0.01527,0.40977,-0.071288,-0.074301,0.15226,0.23155,0.022305,0.11898,-0.13912,-0.20507,0.12942,-0.11198,-0.1754,0.11825,0.13003,0.091854,0.083568,0.050087,0.043258,0.59756,0.35879,0.32286,-0.39517,0.048814,-0.17594,-0.13849,-0.23027,-0.077711,0.033854,0.019975,-0.27262,-0.15906,0.0073221,-0.27259,0.053874,-0.55646,-0.0047925,0.026346,0.1353,0.16415,0.0025762,-0.13121,-0.36015,-0.2015,-0.12495,-0.37024,0.21444,-0.064014,-0.20228,-0.055403,-0.1717,0.40217,-0.73085,-0.32385,0.36802,0.26331,0.19159,-0.15461,0.053281,0.00035232,0.047223,-0.25447,0.091052,0.60144,-0.27846,-0.010282,-0.32112,0.076253,0.17621,-0.24478,0.27135,-0.04676,0.16474,0.087941,-0.024036,0.46263,-0.33616,0.11398
