0,1,2,3,4,5,6,7,8,9,10,11,12,13,14,15,16,17,18,19,20,21,22,23,24,25,26,27,28,29,30,31,32,33,34,35,36,37,38,39,40,41,42,43,44,45,46,47,48,49,50,51,52,53,54,55,56,57,58,59,60,61,62,63,64,65,66,67,68,69,70,71,72,73,74,75,76,77,78,79,80,81,82,83,84,85,86,87,88,89,90,91,92,93,94,95,96,97,98,99,100,101,102,103,104,105,106,107,108,109,110,111,112,113,114,115,116,117,118,119,120,121,122,123,124,125,126,127,128,129,130,131,132,133,134,135,136,137,138,139,140,141,142,143,144,145,146,147,148,149,150,151,152,153,154,155,156,157,158,159,160,161,162,163,164,165,166,167,168,169,170,171,172,173,174,175,176,177,178,179,180,181,182,183,184,185,186,187,188,189,190,191,192,193,194,195,196,197,198,199,200,201,202,203,204,205,206,207,208,209,210,211,212,213,214,215,216,217,218,219,220,221,222,223,224,225,226,227,228,229,230,231,232,233,234,235,236,237,238,239,240,241,242,243,244,245,246,247,248,249,250,251,252,253,254,255,256,257,258,259,260,261,262,263,264,265,266,267,268,269,270,271,272,273,274,275,276,277,278,279,280,281,282,283,284,285,286,287,288,289,290,291,292,293,294,295,296,297,298,299,300,301
ship,-0.59911,0.26343,-0.35255,0.59049,-0.17051,0.41711000000000004,-0.6714600000000001,-0.40531,0.039266,-0.27738,0.18598,-0.12418,-0.35944,-0.15225,0.22605999999999998,-0.17853,0.15621,0.013105,-0.17761,0.20031,-0.19128,-0.12046,-0.60236,-0.063502,-0.40803,0.039748,0.33401,0.21785,0.27895,0.36111,0.198,0.26458000000000004,0.1056,0.16837,-0.13622,-0.44061999999999996,0.037757,-0.54342,0.032525,-0.25963,-0.21279,0.083636,0.24409,-0.10587,0.10389000000000001,0.0040839,0.039488999999999996,0.22569,0.11938,-0.33054,0.2554,0.097322,-0.29429,0.16423,-0.17517,-0.11429,0.12788,0.0010407,0.13784000000000002,0.22945,0.077401,-0.14985,0.06046699999999999,-0.46581999999999996,-0.091449,-0.087007,-0.5945199999999999,0.057062,-0.23540999999999998,-0.17564000000000002,0.25477,0.29698,-0.065059,-0.039833,-0.13943,0.20017000000000001,0.57967,0.20016,-0.35858,-0.31094,0.27004,-0.039103,-0.42156000000000005,0.19858,-0.59642,-0.47563,0.24705,0.7659100000000001,0.16815,-0.3274,0.23779,-0.09893099999999999,0.34895,0.041879,0.63438,0.45952,-0.024703,-0.049837,-0.11982999999999999,-0.054528,0.076486,-0.17196,-0.15765,-0.35436,0.19215,0.1221,-0.65096,-0.30437,-0.6018600000000001,0.18453,0.27016999999999997,-0.25045,-0.13881,-0.033105,0.28549,-0.61087,-0.19729000000000002,0.10675,-0.0027102,0.17724,-0.13746,-0.14501,-0.18399000000000001,-0.13380999999999998,-0.08357300000000001,-0.22374000000000002,-0.42036,-0.064765,0.35765,0.38001,0.070923,0.4066,-0.17997,0.59251,0.030438,0.034783,0.095945,-0.36066,0.015841,0.12741,-0.027561000000000002,0.20906,0.54276,-0.14067000000000002,-0.39623,-0.016219,0.12962,-0.074485,-0.017376,-0.21168,0.47089,-0.33613000000000004,-0.17033,0.026182999999999998,-0.16530999999999998,-0.24168,-0.016447999999999997,-0.40032,0.25969000000000003,-0.31042,-0.65732,-0.10757,-0.1291,0.001013,0.23985,-0.23173000000000002,-0.52642,-0.35026999999999997,-0.0090337,0.20171,0.024666,-0.04437,0.15815,-0.22218000000000002,0.10811,0.15097,0.42496000000000006,-0.16680999999999999,0.15302000000000002,-0.3994,0.34605,0.26935,0.006949200000000001,-0.51018,-0.21808000000000002,0.38806,0.10264000000000001,0.12753,0.38808000000000004,-0.047932999999999996,0.069526,-0.42333000000000004,-0.08313200000000001,0.035355000000000004,-0.031511000000000004,-0.25046999999999997,0.26794,-0.20745999999999998,-0.33046,-0.31128,0.12312000000000001,0.28247,-0.29607,0.42887,-0.27304,-0.10102,-0.10059,-0.0088005,0.2823,0.024125999999999998,0.42355,0.085259,0.66185,-0.29649000000000003,-0.25176,0.21236,-0.38989,-0.29013,0.2066,0.06690800000000001,0.20459000000000002,0.1127,-0.23843000000000003,0.049742,0.016901,0.36985999999999997,0.17809,-0.28773000000000004,0.082415,0.035102999999999995,0.16457,-0.19574,-0.1218,-0.23091,-0.16976,0.031195999999999998,-0.36564,0.3486,0.019328,-0.48431,0.13228,0.26438,0.50425,-0.19122,-0.58886,-0.48062,-0.45219,-0.30896999999999997,-0.02814,0.22096,0.42456000000000005,-0.35412,-0.1975,0.34016,0.24784,-0.053541,-0.10999,-0.54135,-0.017262,-0.069948,-0.13985999999999998,-0.087052,-0.42253,-0.72963,-0.19704000000000002,0.25685,0.14895999999999998,-0.012421,0.15261,-0.30023,0.17853,-0.18761,0.074312,0.44451,-0.80925,-0.23626999999999998,0.23626999999999998,0.56524,0.60069,0.31064,-0.23163000000000003,-0.3428,-0.13888,0.21650999999999998,0.07328,0.25805,0.032917,0.05413099999999999,-0.15491,-0.14239000000000002,0.13432,-0.5615,-0.24276,0.10496,-0.34614,-0.35924,-0.35895,-0.069728,-0.34215999999999996,0.35641999999999996,
horse,0.1438,0.12435999999999998,0.12465,0.11634000000000001,-0.049427,0.13524,-0.2014,0.10637,0.089167,0.18281,-0.10147,0.196,-0.011233,-0.15456,0.34131999999999996,0.087671,-0.15025,0.035733999999999995,0.1303,0.19877,0.01026,-0.33453,-0.5253399999999999,0.20387,-0.20382999999999998,-0.18904,-0.17015,0.19854000000000002,0.053078,0.26153000000000004,0.33228,0.40676999999999996,-0.33075,0.12426,0.095704,0.14374,-0.24968,-0.17355,0.15453,0.63155,0.032188,-0.13460999999999998,-0.15965,-0.41978999999999994,-0.02634,0.19111,-0.35248,-0.1251,0.097105,-0.17334000000000002,0.29175999999999996,0.019437,-0.44167,0.21958000000000003,-0.32983,0.48951999999999996,0.35051,-0.14198,0.23296,0.49485,0.081437,-0.47603999999999996,-0.079354,-0.17219,0.17515,-0.13940999999999998,-0.25001,0.18353,0.14199,0.020878,0.045986,0.12744,0.4719,-0.49401999999999996,0.12426,-0.30155,0.61779,0.48099,-0.15467999999999998,-0.012532999999999999,0.10515999999999999,-0.089915,0.29773,0.012499,-0.59385,0.54542,0.048523000000000004,0.12686,0.46237,0.3258,-0.26502,-0.44626000000000005,0.25877,0.14420999999999998,0.019418,0.24366999999999997,-0.17952,0.043927999999999995,-0.4013,0.46602,-0.25235,-0.0077251,-0.28483,-0.053526,-0.15341,0.28513,-0.10221000000000001,0.46248,-0.056558000000000004,0.052289999999999996,-0.14970999999999998,0.23103,-0.1695,-0.056521,-0.044879,0.12892,0.081817,0.16772,-0.10805999999999999,0.023533000000000002,0.33657,-0.0045819,0.32418,0.58665,-0.10599000000000001,0.15303,0.22248,-0.14265,0.49031,-0.025028,-0.16812,0.22956999999999997,-0.01901,0.088448,-0.092549,0.08875599999999999,0.26578,-0.1822,-0.26424000000000003,0.37651,-0.27283,0.39284,0.2048,0.14114000000000002,-0.057127,0.15758,-0.038263,0.32284,-0.14923,0.10808,0.18408,-0.018156,-0.41047,0.11742000000000001,-0.1829,0.2811,0.10962000000000001,0.19529000000000002,0.44736000000000004,-0.61611,-0.28686999999999996,-0.063253,-0.19502,0.21711,0.54068,-0.099125,0.18359,0.19873,0.51153,-0.026547,0.047805,-0.33788,-0.23375,0.022877,-0.10875,0.52678,-0.16066,0.22743000000000002,0.23213000000000003,0.057002,-0.12395,-0.54933,-0.12209,-0.15965,-0.11664000000000001,0.022183,0.1072,-0.17406,0.10250999999999999,0.44337,-0.27063000000000004,-0.13122999999999999,-0.1648,0.16947,-0.46888,0.064217,-0.12804000000000001,-0.017353999999999998,-0.22929000000000002,-0.08984099999999999,-0.20094,0.0041288,-0.26852,0.059179999999999996,-0.51461,-0.32583,-0.12424,-0.17078,0.17663,-0.28108,0.35338,0.29694,0.17823,-0.02103,0.049616,-0.20440999999999998,-0.35616,-0.13064,-0.20770999999999998,0.19021,-0.38774000000000003,-0.23219,-0.043861000000000004,0.11900000000000001,-0.40615999999999997,0.08519199999999999,0.28010999999999997,0.2274,-0.11747,0.029258,-0.085833,0.045022,0.41026,-0.16388,0.41777,0.32304,0.043843,0.14731,0.13388,0.0543,-0.012694,0.13560999999999998,0.077705,0.25686,-0.13299,0.07433300000000001,-0.18016,-0.06390900000000001,-0.0049161000000000005,-0.019112,0.040553,-0.44361000000000006,0.087421,-0.14487,-0.16804000000000002,-0.017773,-0.1223,-0.40328,0.35894000000000004,0.057076,0.17603,-0.11215,0.18208,-0.27665,-0.29757,0.10275,-0.11381,0.23829,0.1459,0.05789299999999999,-0.10984000000000001,0.19639,-0.086239,-0.084249,0.20875,-0.6674,0.21313000000000001,0.16882,-0.16849,0.22279000000000002,0.37923,0.01825,-0.057436,0.017609,0.19956,-0.22719,-0.015953,0.51063,-0.27169,-0.14296,0.11394000000000001,-0.26263000000000003,0.094264,-0.18338,-0.42413999999999996,0.35781,-0.40292,0.25115,0.37928,0.25835,
dog,0.19083,0.065282,-0.26465,0.11757000000000001,-0.28956,0.098984,-0.32181,-0.27679000000000004,0.072732,0.21486,-0.065308,0.17848,0.12327,-0.31839,0.21547,-0.18137999999999999,-0.013028999999999999,-0.076652,0.0043791,-0.0053426,0.28255,-0.04027,-0.3265,-0.18132,0.2396,-0.0015806,-0.11625,0.17114000000000001,0.29568,0.21059,0.37243000000000004,0.075459,-0.07608,-0.17010999999999998,0.22723000000000002,-0.034283999999999995,-0.12251,-0.24276,-0.0033694000000000003,0.35631,-0.014193,-0.17565999999999998,0.025879000000000003,0.23394,0.14237,0.31281,0.12284,-0.2689,0.157,0.11625999999999999,0.086337,0.19307,-0.25144,0.09417400000000001,-0.005679699999999999,0.41143,0.41341000000000006,-0.32283,0.10962999999999999,0.35649000000000003,0.028923,-0.36036999999999997,0.16095,0.09283,-0.020297,-0.26669,0.25275,0.19916,-0.028537,0.11632999999999999,0.25918,-0.28496,0.11494000000000001,-0.37263,-0.22344,0.15158,0.20357,0.37799999999999995,-0.28565999999999997,-0.099053,0.038159,-0.31521,0.096536,-0.25665,0.061173000000000005,0.15872999999999998,-0.39491,0.33005999999999996,0.47139,0.23006,4.7565e-05,-0.065095,0.12047000000000001,-0.19384,0.27395,-5.768e-05,-0.25384,-0.16552999999999998,-0.47913,0.062247000000000004,0.12553,-0.29764,-0.091895,0.050407,-0.14737999999999998,-0.061842999999999995,-0.014091999999999999,0.23917,0.20768000000000003,0.17240999999999998,-0.027756,-0.11868,-0.20675,-0.15717,-0.022924,-0.016982,0.2153,-0.49361000000000005,0.019408,0.011691,0.08252899999999999,-0.13947,0.26889,0.38933,0.11702,0.28647,0.27144,0.3166,0.30898000000000003,0.23876999999999998,-0.19923,0.22674,-0.11387,0.29445,0.040964999999999994,-0.0201,0.083845,0.049759,-0.37744,0.28037,0.099089,0.28553,0.24158000000000002,0.44448999999999994,-0.34167,0.21106999999999998,0.027957,-0.26059,0.30444,0.38547,-0.011501,0.15258,-0.33638,0.054402,-0.18534,0.17321,-0.091289,-0.092462,0.24856999999999999,-0.17104,-0.071494,0.34757,-0.44733999999999996,-0.13155,-0.00029966,-0.0010785,0.009452200000000001,0.043495,0.25981,0.15367999999999998,-0.22894,-0.38845999999999997,-0.19119,0.12154000000000001,0.11874000000000001,0.31175,-0.23321,-0.205,0.1364,-0.15422,-0.31583,-0.45399999999999996,0.40108,-0.20065,0.012388,-0.18864,-0.11024,-0.26553000000000004,0.10344,0.54484,0.014496,-0.31781,-0.20949,0.26126,-0.43256999999999995,-0.19532,-0.17705,-0.14515999999999998,-0.44121000000000005,-0.21661,-0.10137,0.22169,0.09550299999999999,0.16577,-0.17706,-0.25324,-0.15005,-0.33146,-0.2829,-0.28176,0.38221,-0.20048,0.14992,0.011568,0.20405,-0.054298,-0.10175,-0.14784,-0.20378,-0.031528,-0.25997,-0.15582000000000001,-0.33471999999999996,0.45353000000000004,-0.39242,-0.12339000000000001,-0.20720999999999998,0.29162,-0.11094000000000001,0.42158999999999996,0.068438,-0.097242,0.14375,-0.20389000000000002,0.018583000000000002,0.44613,-0.25042,0.046029,-0.046916,-0.086965,-0.18162,0.26523,0.19693,0.17798,-0.2622,0.014805,-0.013308,-0.092347,-0.020534999999999998,0.095261,0.053204999999999995,-0.26888,-0.32491,0.13117,0.27215,-0.074799,0.043493000000000004,-0.5494100000000001,0.2463,0.0079618,0.44391,0.23019,0.19137,-0.28542,-0.29572,-0.08053099999999999,-0.01083,-0.030164999999999997,0.0099977,-0.18972,-0.23506,0.2137,-0.022882,-0.061634,0.039061,-0.23975,0.20139,-0.08013200000000001,0.055597,0.05989,0.34245,-0.032367,0.25544,0.44595,0.1133,-0.20008,0.23563,0.13326,-0.43943000000000004,-0.29521,-0.029299000000000002,-0.35536999999999996,0.46142,-0.10947,-0.28796,0.22494,0.0070217,0.25265,0.30453,0.20472,
bird,-0.41777,-0.15666,0.19029000000000001,0.31994,-0.20382999999999998,0.19795,0.059997,0.076568,-0.053854,-0.19475,0.51573,0.27287,0.14209000000000002,-0.090007,-0.030672,-0.10265999999999999,-0.066815,-0.13706,0.09385,0.36635999999999996,0.25163,0.37099,-0.021845,0.10226,-0.20875,-0.040141,0.31486,-0.1294,-0.06829500000000001,0.20726999999999998,-0.22901,0.30611,-0.33104,-0.052086,0.1833,0.15604,0.39531,-0.22439,0.36776,0.065183,-0.048504000000000005,-0.15699000000000002,-0.040639999999999996,0.046289,0.11563,0.062763,0.10445,-0.38500999999999996,0.33333,0.19375,0.23038000000000003,0.12380999999999999,-0.21975999999999998,0.080627,0.04286,0.29721,-0.042655,0.031887,0.29046,0.65153,0.35825999999999997,-0.32836,0.18011,-0.076758,-0.17274,0.08710599999999999,-0.12722,0.19301,0.11803,0.11880999999999999,0.017613,-0.29861,0.25822,-0.63398,-0.21193,0.24973,0.3,0.64,0.017284,0.099843,8.834e-05,0.06385700000000001,0.21065,0.42726000000000003,0.3614,-0.13746,-0.28595,0.35256,0.30234,0.08796699999999999,0.15850999999999998,0.17801,-0.048362,-0.043715,0.12492,0.09109400000000001,0.085496,0.029026,-0.4077,-0.0071811999999999996,0.17128,0.29541,-0.043474,0.019558000000000002,-0.12659,-0.010593,-0.059936,0.070158,-0.28696,-0.035522000000000005,-0.47276999999999997,-0.034292,-0.043227999999999996,-0.39118,-0.081573,-0.30418,0.11599000000000001,-0.2483,-0.22882,0.15708,0.15685,-0.046130000000000004,0.05636,0.31516,0.22791999999999998,0.31824,-0.11757000000000001,-0.18498,0.059029,0.50429,-0.18933,0.27675,0.11044000000000001,0.089937,0.16075,0.27235,-0.28355,-0.035456,-0.50978,-0.066162,0.09712799999999999,0.1534,0.28743,0.12120999999999998,-0.19549,0.35457,-0.35641,-0.54172,0.53276,0.072915,0.21356,-0.23890999999999998,0.26638,-0.34975,-0.10907,0.3057,-0.072291,-0.24748,-0.045594,-0.27288,0.038623000000000005,0.044860000000000004,-0.12385999999999998,-0.11478,-0.015907,-0.33802,-0.30207,-0.058699,0.60983,-0.14247,-0.25611,0.11692000000000001,-0.050875,-0.47381999999999996,-0.23783,0.23976999999999998,-0.14012,-0.0097696,-0.1613,0.098764,0.021319,-0.19769,0.19289,0.06416799999999999,0.30449,-0.40393,0.114,0.043091000000000004,0.15487,-0.18142,0.35757,-0.096739,0.42845,-0.0029313000000000004,-0.029644,-0.24458000000000002,0.11865999999999999,0.095644,-0.0229,-0.18879,-0.0043641999999999995,0.38764,-0.24754,0.22782,0.10987000000000001,-0.53113,0.18019000000000002,0.061207000000000004,0.1423,-0.4128,0.23378000000000002,-0.2556,0.20489000000000002,-0.30203,0.026833,-0.12634,-0.044976999999999996,-0.26075,-0.24469000000000002,-0.079326,-0.40966,0.40621999999999997,-0.49267,0.47218999999999994,-0.35386999999999996,0.046974,-0.47765,0.20344,-0.38214000000000004,-0.13616,0.2642,0.15825999999999998,-0.36537,0.053439999999999994,0.022537,0.040405,-0.27869,-0.095843,0.08731599999999999,0.21955999999999998,-0.23823000000000003,0.16363,-0.020052,-0.11400999999999999,-0.0014309000000000001,-0.040626999999999996,0.17294,-0.30976,-0.29884,0.062936,0.019149,-0.61888,0.3447,0.024737000000000002,0.41186999999999996,0.0099149,-0.09229,-0.029406,0.10965,0.12261,0.063814,0.13038,0.030941000000000003,-0.40023000000000003,-0.12465999999999999,-0.18708,-0.068397,0.24911999999999998,0.27076999999999996,-0.34408,-0.16225,0.5041100000000001,0.1383,-0.024683,0.0027978,-0.45318,0.036882,-0.051986000000000004,-0.41273999999999994,0.19274000000000002,0.39300999999999997,0.30787,-0.026831999999999998,-0.14809,0.23008,-0.16293,0.42056000000000004,0.21984,-0.33926999999999996,-0.20599,-0.6327,0.041198,0.075688,0.12562,-0.14934,-0.34749,0.2261,0.39939,0.3754,0.24031,
cat,-0.13819,0.14029,-0.32621,0.11624000000000001,-0.19805999999999999,0.45526000000000005,0.21281999999999998,-0.51256,0.033657,0.15429,0.15162,-0.0029573,0.19644,-0.17595999999999998,0.28147,-0.09141200000000001,0.07636,-0.43859,0.19801,0.28139000000000003,0.0098646,0.51562,-0.41693,0.10776,0.35226999999999997,0.024383000000000002,-0.074379,0.26591,0.33723000000000003,0.47339,0.26984,0.23394,0.11665999999999999,-0.22180999999999998,0.18746,-0.10135,-0.06492200000000001,-0.042677,0.06377200000000001,-0.027752,-0.11039000000000002,-0.26154,-0.22353,-0.036962,0.12765,0.51871,-0.081972,-0.39103000000000004,0.16349,-0.29408,0.092915,-0.059598000000000005,-0.092276,-0.34925,0.31540999999999997,0.37776,0.009489299999999999,-0.42358,0.075348,0.19263,0.20815999999999998,-0.47312,0.093752,0.21431999999999998,-0.06130700000000001,-0.3775,0.12458,-0.028288,-0.12738,0.047164,-0.051377,-0.34661,0.24864,-0.41215,-0.39386,0.026905000000000002,-0.16849,0.34931,-0.37351,0.11903,-0.068579,0.012468,0.1888,0.3691,0.35854,0.11405,-0.16632,0.047209,0.2411,0.063058,0.12129000000000001,-0.19446,0.34581,0.14375,0.10722000000000001,0.15282,-0.27862,-0.25031,-0.25842,0.049456,0.17654,0.08437599999999999,-0.24789,0.12528,0.040818,-0.23331999999999997,0.21916,0.0074206,0.25913,-0.19499,0.20469,-0.029883999999999997,-0.31735,-0.052204999999999994,0.047866000000000006,-0.15472,0.095325,-0.19528,0.15135,-0.13524,-0.040558,-0.14007999999999998,0.05160599999999999,0.24009,0.15522,0.12882000000000002,0.5193300000000001,0.028130000000000002,0.31076,0.49046000000000006,-0.29581,0.14854,-0.254,0.30761,0.027035000000000003,-0.10625,0.14662,-0.16817000000000001,-0.44123999999999997,0.30776,0.10013,0.095489,0.19842,0.10874,-0.07159199999999999,0.14575,-0.0067681,-0.19304000000000002,-0.0187,0.28813,-0.13184,-0.26388,-0.4517,-0.1305,0.14559,0.088929,0.25648000000000004,-0.11048,-0.014246,0.29999000000000003,0.126,0.032165,-0.28104,0.1633,0.11995,-0.20676,-0.1545,-0.23289,0.10893,0.13557,-0.05545800000000001,-0.49742,-0.12647,-0.08595,0.16605999999999999,-0.027086000000000002,-0.083551,-0.36655,0.048247000000000005,-0.20720999999999998,-0.1777,-0.28471,0.48608999999999997,-0.31947,-0.062953,-0.010116,0.038717,-0.067381,0.045205,0.43663,-0.0084704,-0.35777,-0.042211,0.34748,-0.35006,-0.51097,-0.45637,-0.31961,-0.7623800000000001,-0.16869,0.1167,0.095706,0.10855999999999999,0.03732,0.015512,-0.65527,-0.012158,-0.60952,-0.21599000000000002,-0.26515,0.19935,-0.23711999999999997,0.19560999999999998,-0.12777,0.23010999999999998,-0.084971,0.35431,-0.020814,-0.22624,-0.14007,-0.071543,-0.21259,-0.53688,0.24775999999999998,-0.13496,-0.087008,-0.14576,-0.025546,0.14818,0.2405,0.13467,0.25503000000000003,-0.047867,-0.044016,0.051306,0.36854000000000003,-0.24258000000000002,0.16638,-0.06702899999999999,0.28324,-0.074401,0.42498,0.30606,0.33625,-0.022731,0.013619999999999998,-0.23895,0.25478,-0.21216,0.53798,0.11896,-0.27881,-0.52389,0.26504,0.11864000000000001,-0.24554,0.20203,-0.078157,0.29883000000000004,-0.23010999999999998,-0.018775,0.046398,0.068638,-0.22223,-0.40365999999999996,-0.044699,0.079847,0.028033,0.06943400000000001,-0.0824,-0.20310999999999998,-0.07375,0.38142,-0.41379,0.016848,-0.59965,-0.015879,-0.25764000000000004,0.36564,0.26507,0.3624,0.074287,0.32372,0.14594000000000001,0.40075,0.081177,0.026123,0.20561,-0.44548000000000004,-0.14114000000000002,0.15185,-0.32703000000000004,0.10269,-0.053309,-0.068975,-0.006616400000000001,-0.066738,0.27319,0.52003,-0.0087214,
truck,-0.049757,-0.24886999999999998,0.07734500000000001,0.38045,-0.50517,-0.2074,-0.018878,-0.58745,-0.070497,0.073769,-0.058383000000000004,0.53633,0.07857,-0.2499,0.12021,0.13484000000000002,-0.12637,0.1042,-0.13637,0.3953,-0.021741999999999997,-0.35511,-0.29217,-0.29293,0.045441,0.10944000000000001,-0.23210999999999998,0.041861,-0.19065,0.10274000000000001,0.074635,0.081039,-0.33269,0.05993,-0.1194,0.22063000000000002,-0.13308,-0.52331,0.2287,0.087301,-0.18813,-0.042058,-0.10563,0.17904,0.24768,0.59024,0.14117000000000002,-0.078954,0.3937,-0.19866,0.22361,0.0049172,-0.076363,0.12847,-0.12437000000000001,0.20347,0.6352399999999999,0.3165,0.38674000000000003,0.40913,0.12029000000000001,-0.050814,0.28245,-0.079965,-0.15975999999999999,-0.084161,-0.25954,0.19807,0.015505000000000001,-0.006236,-0.10624000000000001,0.18192,0.07080399999999999,0.05011,-0.31899,0.016246,-0.29543,0.083941,-0.36993000000000004,0.21921,-0.10567,0.07073099999999999,-0.47102,-0.3328,-0.28558,0.013836000000000001,-0.1192,0.33812,0.49951999999999996,-0.0093303,-0.203,-0.20039,-0.045926999999999996,0.22161,0.058739,0.13735999999999998,-0.16971,-0.13759000000000002,-0.25246999999999997,-0.22757,-0.20277,-0.17144,0.051102999999999996,-0.27242,0.35863,0.034372,-0.25439,0.22678,-0.25319,0.22913000000000003,-0.12924000000000002,-0.18284,-0.47805,0.013925,0.35905,0.066837,0.5969,0.12941,-0.58937,0.049686,0.26065,0.24783000000000002,0.17265,0.1286,0.14817,-0.24263,0.1336,-0.07711900000000001,0.3114,0.1141,0.37255,0.28678000000000003,-0.21294000000000002,0.38344,-0.24641,0.5283,-0.033974000000000004,-0.038961,-0.26746,0.25445,0.06677999999999999,0.15725999999999998,0.12791,-0.16152,-0.17722000000000002,0.23144,-0.058557000000000005,-0.21823,-0.083968,0.068288,-0.048156,-0.10135,-0.23600000000000002,-0.3603,0.13574,0.35598,0.11672,-0.60845,-0.10507000000000001,-0.3546,-0.19809000000000002,-0.18375,-0.40313000000000004,0.3481,0.21825999999999998,-0.13221,-0.33142,0.025478,-0.023577,-0.06414299999999999,-0.08519600000000001,0.05184,-0.26225,-0.42685,-0.36532,0.52123,0.2744,-0.10407999999999999,0.1695,-0.23876,0.0029722,-0.14323,-0.13959000000000002,-0.17781,-0.13508,-0.23915,0.063792,-0.13662,0.055089,0.19625,0.17312,-0.16882,0.08838,0.20304,-0.014407,-0.16709000000000002,0.027471,-0.17310999999999999,-0.31029,-0.14934,-0.083892,0.364,0.24984,-0.4923,-0.31940999999999997,-0.31442,-0.37678,0.029666,0.57033,-0.0017087,0.46658999999999995,0.10515,-0.31353000000000003,0.2041,-0.5505399999999999,-0.2174,-0.50803,-0.39371,0.056511,0.37616,-0.18261,-0.038581,0.015269999999999999,0.40976999999999997,-0.071288,-0.074301,0.15225999999999998,0.23155,0.022305000000000002,0.11897999999999999,-0.13912,-0.20506999999999997,0.12942,-0.11198,-0.1754,0.11825,0.13003,0.09185399999999999,0.08356799999999999,0.050087,0.043258,0.5975600000000001,0.35879,0.32286,-0.39516999999999997,0.048813999999999996,-0.17594,-0.13849,-0.23026999999999997,-0.077711,0.033854,0.019975,-0.27262,-0.15905999999999998,0.007322100000000001,-0.27259,0.053874,-0.5564600000000001,-0.0047925,0.026345999999999998,0.1353,0.16415,0.0025762,-0.13121,-0.36015,-0.2015,-0.12495,-0.37024,0.21444000000000002,-0.064014,-0.20228,-0.055402999999999994,-0.1717,0.40216999999999997,-0.73085,-0.32385,0.36801999999999996,0.26331,0.19159,-0.15461,0.053280999999999995,0.00035232,0.047223,-0.25447,0.091052,0.60144,-0.27846,-0.010282,-0.32111999999999996,0.076253,0.17620999999999998,-0.24478000000000003,0.27135,-0.04676,0.16474,0.08794099999999999,-0.024036000000000002,0.46263000000000004,-0.33616,0.11398,
automobile,0.40195,-0.16021,0.22794,-0.022144999999999998,-0.50535,-0.12966,0.092655,-0.7326199999999999,-0.12929000000000002,0.39166,-0.2786,-0.15098,-0.056361,-0.08046299999999999,-0.48415,-0.043002,-0.30304000000000003,-0.028863,-0.34387,0.65158,-0.22566999999999998,0.16626,-0.17944000000000002,-0.34818000000000005,0.11706,0.032987,0.095324,0.09007000000000001,0.064536,-0.033964999999999995,-0.19789,0.49693999999999994,-0.27853,0.15647,-0.1169,0.3333,-0.079151,-0.37424,0.098071,0.28258,-0.36194,-0.25959,0.073507,-0.14849,0.077632,0.30545,-0.083161,-0.11089,0.61383,-0.27404,0.16192,-0.18736,0.034638,0.047686,-0.42453,-0.0060475,0.41828999999999994,0.038612,0.21561999999999998,-0.097179,0.23396999999999998,0.095363,0.050968,0.0054453,-0.11915,-0.59412,-0.18947999999999998,0.032293999999999996,-0.016876,-0.36063,0.036001,0.011495,0.28534,-0.24092,-0.079927,0.22741999999999998,0.004487,0.18912,0.045281999999999996,0.63644,0.083604,0.30454000000000003,-0.029126999999999997,-0.18017,-0.41294,-0.22046,-0.20515,-0.16934000000000002,0.19044,0.017082,-0.11909000000000002,-0.10203999999999999,-0.060746,-0.14562999999999998,0.27265,-0.59459,-0.304,-0.08787,-0.078349,-0.056403999999999996,-0.090917,0.0028561999999999997,0.09983,-0.62048,0.091249,0.073742,0.19235,-0.2964,-0.3539,0.10031,-0.035139,0.18112999999999999,-0.034508,-0.028783,0.35674,-0.15217,0.43546999999999997,0.1262,-0.46379,-0.20554,0.7257899999999999,-0.17314000000000002,0.12102,-0.040445,0.07600900000000001,0.062141999999999996,0.027076999999999997,0.38534,0.49381,0.28805,0.11607999999999999,0.14464000000000002,0.17748,-0.085698,0.095618,0.18095,-0.1312,0.068361,-0.39183,0.24383000000000002,-0.090935,0.087736,-0.11717000000000001,-0.16387000000000002,-0.064474,0.15989,-0.080847,0.27378,0.055649000000000004,-0.06318700000000001,0.24516,0.069272,0.019574,-0.27460999999999997,-0.13929,0.27547,0.10400000000000001,-0.57757,0.051155,-0.077511,0.00066546,0.020134,-0.3043,0.26442,0.54152,0.021754,-0.033984,0.11483,0.49654,0.17015,0.06793099999999999,-0.46142,0.17568,-0.35941,-0.6662399999999999,0.46485,-0.008604299999999999,0.27408000000000005,0.32993,-0.20290999999999998,-0.19442,-0.2346,-0.20681999999999998,-0.20235999999999998,0.2953,0.10294,-0.086148,-0.19347999999999999,0.04193,0.067165,-0.012492,-0.05409,0.3926,0.18829,-0.039143,-0.1981,0.31895,0.24916,-0.0027898000000000003,-0.0040126,-0.2929,0.3757,0.16907,-0.13457,-0.12289000000000001,-0.28298,-0.44327,-0.17452,0.51656,0.038416000000000006,0.27519,-0.049625999999999997,-0.22803,0.21458000000000002,-0.38140999999999997,0.26393,-0.5154,-0.4195,-0.20992,0.13729,-0.052404,-0.018936,-0.39476,0.44271000000000005,-0.18778,0.10867,0.46208,-0.3778,-0.031374,-0.071234,-0.23139,-0.37334,0.034624,-0.39491,-0.20711999999999997,0.055726,0.092142,-0.09401799999999999,-0.27871999999999997,-0.079292,0.16244,-0.23521999999999998,0.43598000000000003,0.081073,-0.09865,0.045238,0.051168,-0.46931000000000006,0.026079,-0.23748000000000002,-0.023884,-0.4074,-0.014706,-0.29455,-0.2686,-0.33884000000000003,0.15844,-0.46848,-0.2692,0.4291,0.23164,-0.5541,-0.058547,-0.48028999999999994,-0.26368,0.016921000000000002,-0.22089,0.053469,0.21295999999999998,0.029585000000000004,-0.27959,-0.11982999999999999,-0.33043,0.36946,-0.53168,-0.45181000000000004,0.10991,0.36156,-0.042756,0.18081,-0.045923,0.06099400000000001,0.050355000000000004,-0.2703,0.6422399999999999,0.43276000000000003,-0.24634,0.05438,-0.03311,0.24136,0.196,-0.050655,0.090026,-0.15673,-0.11852,-0.20783000000000001,-0.18737,0.4128,-0.30913,0.080565,
deer,0.16816,-0.030747000000000003,-0.19285,0.13410999999999998,0.3347,-0.027601,-0.015381,-0.47718999999999995,0.31717,-0.11030999999999999,0.11697,-0.069534,0.21179,-0.30321,-0.1362,-0.055783000000000006,-0.26044,-0.036159,0.15689,-0.05720599999999999,0.021156,0.10935999999999998,-0.42875,-0.18975999999999998,0.083248,0.075837,-0.12230999999999999,-0.015171,0.056255999999999994,-0.22444,0.33848,0.67599,-0.44696,0.22398,0.5797899999999999,-0.056220000000000006,-0.085009,-0.085227,0.33142,-0.19253,-0.33411,-0.14645,0.32676,0.5038699999999999,0.16723,-0.033538,-0.113,-0.24114000000000002,0.025161000000000003,0.24685,0.069685,0.24916,-0.16542,-0.019639,-0.26554,0.076668,0.10611,0.27957,-0.24229,0.6301899999999999,-0.13178,-0.32516,0.13939000000000001,0.096096,0.08034,-0.29664,0.2456,0.30549,0.07671499999999999,0.13789,0.11986,-0.083599,-0.010105,-0.62366,-0.25508000000000003,-0.49446999999999997,0.5324300000000001,0.2842,-0.13840999999999998,-0.14993,0.03277,-0.20715,0.095596,-0.013121,0.15765,0.33195,-0.061138,0.19516,0.42511000000000004,0.39058000000000004,-0.21111999999999997,-0.23019,0.21746,0.17645999999999998,0.24463000000000001,0.18411,0.18596,0.39621999999999996,-0.50618,0.25974,-0.016544999999999997,0.13051,-0.09525499999999999,-0.07191499999999999,-0.29536999999999997,0.35317,-0.061286,0.094253,0.15159,0.07208099999999999,-0.3152,-0.1545,-0.24791999999999997,-0.32921999999999996,0.3556,-0.054563,0.11532,0.041814,0.069408,0.020665,0.29475999999999997,-0.072451,0.17038,0.3582,0.19197,0.36673,-0.17345,0.0613,0.073334,0.36391999999999997,-0.65757,0.1481,-0.12218,0.5353899999999999,0.19074000000000002,0.15277000000000002,0.27495,-0.25793,-1.0027,0.39821999999999996,-0.18902,0.3651,0.3674,0.10865999999999999,0.13487000000000002,0.59267,0.085867,-0.18382,0.47133,0.27353,0.42563,-0.38838,0.16691,-0.12783,-0.29012,0.25286,0.14079,0.35101,0.075998,-0.33985,0.5626800000000001,0.32823,-0.37442,-0.095345,0.068491,-0.56535,-0.37623,-0.0011080999999999999,0.21998,0.12063,-0.39891,-0.25889,-0.67395,-0.03765,-0.35339,0.29915,-0.15273,0.20212,0.19935,-0.18191,-0.29039,-0.096451,0.014871,-0.12918,-0.22683000000000003,-0.29248,-0.361,-0.14065,0.14389000000000002,-0.061149,-0.022406,0.042888,0.076334,0.2199,-0.34163000000000004,0.27629000000000004,-0.24878000000000003,0.12513,-0.56323,0.019877000000000002,-0.11595,0.21855,-0.42673,0.21843,-0.00050276,-0.1869,-0.1648,-0.27968000000000004,0.060413999999999995,-0.09416000000000001,0.31733,0.1766,0.18275,-0.028213,0.20618000000000003,-0.1111,-0.22159,0.016319999999999998,-0.024057,-0.23697,-0.086039,-0.07399800000000001,-0.097291,0.5060899999999999,-0.15407,-0.2075,-0.014244999999999999,0.31938,-0.26269000000000003,-0.47118999999999994,-0.10615999999999999,-0.21597,0.11642000000000001,-0.03362,0.29299000000000003,-0.18077000000000001,0.075927,-0.55052,0.020146,0.38789,-0.29982,0.13402,-0.31742,-0.14371,-0.15394000000000002,-0.21961,-0.011063,-0.43878,-0.20803000000000002,0.24900999999999998,-0.021581,-0.65828,0.19698,0.18796,0.11652,0.42176,-0.16005999999999998,-0.23008,0.20147,-0.13785,0.19562000000000002,0.42441999999999996,0.046992,-0.069829,-0.26238,0.022417,0.006684699999999999,0.08874,-0.053238,-0.10932,-0.24131999999999998,0.37535999999999997,-0.17826,-0.3187,0.066733,-0.083814,0.37451,-0.041605,-0.013453999999999999,0.046702999999999995,0.036749000000000004,0.22221,-0.075568,0.1575,0.61368,-0.1264,-0.27303,0.21343,-0.6620199999999999,-0.43418999999999996,-0.13026,-0.09707,0.40319,-0.26048000000000004,0.026695999999999998,0.11209000000000001,-0.061699000000000004,0.5502600000000001,0.34729,0.0061281999999999994,
frog,-0.20546,-0.070658,-0.009087399999999999,0.55886,-0.42491,-0.56204,0.49187,-0.48846999999999996,0.23510999999999999,0.30983,0.20961999999999997,0.18300999999999998,-0.039925,-0.070092,0.32249,0.31972,-0.14117000000000002,-0.13989000000000001,-0.035907999999999995,0.18827,-0.02531,0.24456999999999998,0.079367,0.54688,-0.4715,-0.68221,-0.46929,-0.27105999999999997,0.27391,-0.5303899999999999,-0.10677,-0.06614500000000001,-0.23876999999999998,0.081464,0.15748,0.04085,0.35861,-0.049651,0.30798000000000003,-0.2952,-0.38266999999999995,-0.073726,-0.60843,0.040344,-0.05556799999999999,0.71992,-0.29629,-0.34351,-0.40105,-0.20786999999999997,-0.42463,0.067437,-0.037395,0.033665,0.30608,0.40401,0.57918,-0.15438,0.30941,0.50812,0.35045,-0.53833,-0.024087,0.39006,0.047659,-0.32249,0.36951,0.11514,0.31865,0.42186,0.32003000000000004,0.099851,0.28839000000000004,-0.44761999999999996,-0.19785999999999998,0.1004,0.18366,0.22675,-0.28829,0.0036554,-0.17864000000000002,-0.1963,-0.07708999999999999,-0.20155,-0.068837,-0.093984,-0.16205,0.49515,0.067768,-0.12025999999999999,0.15025,0.23778000000000002,0.37818,0.6418699999999999,-0.075307,0.34595,0.3319,0.17822000000000002,-0.35029,-0.35331,0.44366000000000005,0.28864,-0.44133,0.23613,0.43528,-0.14962,-0.3023,0.46026000000000006,0.090627,-0.15766,-0.15955999999999998,-0.36791999999999997,0.014438999999999999,-0.34515999999999997,-0.11615,-0.49068999999999996,-0.22028000000000003,0.24745999999999999,0.16086,-0.20597,0.22896999999999998,0.16493,-0.30668,0.20865999999999998,0.3824,-0.056241,-0.4189,0.0069863,-0.061087999999999996,0.466,-0.14047,0.63663,-0.054132000000000007,0.31876,0.084867,0.5197,-0.33301,0.039820999999999995,-0.43454,-0.29511,0.0065138,0.5315300000000001,0.24706999999999998,0.19105,-0.19585999999999998,0.55213,-0.5479,-0.17622000000000002,0.18904,0.35681999999999997,0.49986,-0.23845,-0.40901,0.071287,-0.11963,0.1883,0.072487,-0.15459,0.095577,-0.10482999999999999,-0.053846000000000005,0.2045,-0.015093,-0.13433,0.5837100000000001,-0.039445999999999995,-0.096998,-0.0192,0.43348000000000003,0.061578999999999995,-0.6292,-0.40526999999999996,-0.055826,0.0085513,0.46275,0.3191,0.10733,-0.19372999999999999,0.54291,0.10265999999999999,-0.48736999999999997,-0.14313,0.0045604,0.07972699999999999,-0.35623,-0.083262,-0.06375399999999999,0.28538,0.22451999999999997,0.027156,-0.046682,0.054234000000000004,0.12215999999999999,0.74434,-0.13111,-0.42472,-0.32881,0.24850999999999998,-0.37742,-0.40276999999999996,0.014499000000000001,0.44277,0.25986,0.46631999999999996,0.1088,-0.5191899999999999,0.049214999999999995,0.42566000000000004,0.21022,-0.17045,0.0041216000000000004,0.27824,0.5754100000000001,-0.47507,-0.16191,-0.15475999999999998,-0.0014342,-0.26333,0.26172,-0.026411,-0.47303999999999996,-0.10459,-0.33098,0.44781000000000004,-0.29383000000000004,-0.20824,-0.044576,0.1632,0.21715,-0.24711999999999998,-0.15800999999999998,-0.19428,-0.27491,-0.09448,-0.2594,0.36707,-0.30766,-0.23508,-0.17057,0.41701000000000005,-0.065274,-0.29993000000000003,-0.014502000000000001,0.043254,0.040499,-0.12788,-0.06511,0.087118,-0.025894,0.0063076,-0.097068,-0.22585,-0.12235,-0.40593,0.40515,0.23824,-0.17337,0.35882,0.49362,0.15319000000000002,0.23543000000000003,0.10845,0.16155,-0.34856,-0.20417000000000002,-0.26235,-0.11170999999999999,0.3582,0.30767,-0.20925,-0.030910000000000003,0.14156,0.45435,0.0051158,0.138,-0.43705,0.27149,-0.0032580999999999995,0.34087,-0.013382,0.80015,0.37635,-0.077625,0.1955,0.4904,-0.44566000000000006,0.20874,-0.24784,-0.35767,-0.40826999999999997,-0.36406,0.15091,0.26516,0.10299000000000001,-0.30869,-0.43535,-0.23747,0.54361,0.25397,0.2519,
airplane,0.07287300000000001,-0.16744,-0.30587,-0.079826,-0.32244,-0.13652,-0.31969000000000003,-0.12504,-0.087948,0.013478,0.10324000000000001,0.28739000000000003,-0.038887,-0.24263,-0.065314,0.18365,-0.12345999999999999,-0.21098000000000003,-0.086102,0.21141999999999997,-0.13516,0.23006999999999997,-0.35873,0.034595999999999995,0.1937,0.18996,0.43842,0.32342,-0.22594,0.21066999999999997,0.226,0.30715,-0.15853,0.1375,-0.07424700000000001,0.31732,0.22411,-0.32626,0.0010176,0.049562,0.10547000000000001,-0.29664,-0.28075,-0.065553,0.14761,0.062457000000000006,0.10397999999999999,-0.32959,0.26433,0.053755,0.17949,0.28844000000000003,-0.021691,0.19227,-0.31703000000000003,0.21385,0.42475,0.22384,0.28722,0.2829,-0.045436000000000004,-0.29903,-0.01865,-0.10297,0.05634,-0.28931,-0.08893,0.081711,-0.0031033000000000002,-0.1926,-0.026455000000000003,-0.027602999999999996,0.12044,-0.070846,-0.0020237000000000002,0.20483,0.23051,-0.026892000000000003,-0.22687,0.07506,-0.1158,-0.02242,-0.13357,0.031501999999999995,-0.11152000000000001,-0.27391,-0.3622,0.067535,0.51544,-0.36865,0.019385,-0.12572,0.20865,-0.067327,0.58595,0.25797,-0.06557,-0.12170999999999998,-0.43241,0.15659,0.1319,0.05297999999999999,0.041694999999999996,-0.24899000000000002,0.029212000000000002,-0.30324,-0.17618,0.13091,-0.079085,0.52615,-0.018663,-0.38977,-0.3273,-0.5425800000000001,-0.07284500000000001,-0.32221,0.5607,0.2168,-0.32528,-0.2123,0.61569,-0.34715,-0.14332,0.23936999999999997,0.36209,-0.35343,0.015716,-0.012417000000000001,0.25766999999999995,-0.15225999999999998,0.21761,0.045325,-0.16052,0.15304,-0.20123,0.091912,-0.030116000000000004,0.026160000000000003,0.020673,0.06436900000000001,0.10323,-0.41144,-0.032646,0.039222,-0.11014000000000002,0.36733000000000005,0.40936999999999996,0.047986,0.07295800000000001,-0.12975,0.40948,-0.1984,-0.198,-0.09918400000000001,-0.1281,0.13588,0.32606,-0.1715,0.033156,-0.11045999999999999,-0.069662,0.30503,-0.23704,0.12857000000000002,0.25289,0.08934600000000001,-0.1015,-0.17662,0.058242999999999996,0.11114,-0.034082999999999995,-0.14464000000000002,0.42783999999999994,-0.31095,-0.23751,0.51184,-0.23376999999999998,-0.25228,0.23487,-0.47125,0.049928,-0.1173,0.27865,-0.06439500000000001,0.29344000000000003,0.11642000000000001,-0.43537,-0.12428,0.23717,-0.07826699999999999,-0.0016478999999999999,-0.046883,0.38393,-0.16595,-0.06909900000000001,-0.42026,0.062039,-0.025863999999999998,-0.24452,-0.2886,-0.35425,0.43488999999999994,0.022099,-0.14144,-0.22291999999999998,-0.54657,-0.46162,-0.29324,0.42951999999999996,-0.12867,0.36224,-0.33424,-0.1657,0.20242000000000002,0.21888000000000002,0.27237,-0.14779,-0.8486100000000001,-0.17614000000000002,0.29962,-0.24923,0.15985,-0.46151000000000003,0.090322,0.2792,0.30109,-0.27149,-0.22024000000000002,-0.050047,0.076008,-0.05926,-0.020566,-0.22776,-0.1433,-0.075035,-0.030206999999999998,-0.23243000000000003,0.42383999999999994,-0.2135,0.020465999999999998,-0.2256,0.073706,0.42045,0.071974,-0.37875,-0.21619000000000002,0.15997,-0.6169399999999999,0.26187,-0.4916,0.062515,-0.32206999999999997,-0.28503,0.1002,0.35194000000000003,-0.017584,0.03916,-0.11925,-0.23045,-0.023188999999999998,-0.065548,-0.048523000000000004,-0.12542,-0.3016,-0.28948,-0.054768,-0.3319,-0.17726,0.021629,-0.41286999999999996,-0.054809000000000004,-0.35334,0.094782,0.13912,-0.51913,-0.40898,0.21565,-0.005037600000000001,-0.088858,0.12448,0.023658000000000002,-0.17525,-0.00016024,-0.29524,0.35366,-0.046488,-0.11990999999999999,-0.17296,-0.042123,-0.1551,0.10955999999999999,0.22424000000000002,-0.26511999999999997,0.10583,-0.1102,-0.24608000000000002,-0.03926,0.43107,-0.0070229,-0.047201,
